digraph Tree {
node [shape=box] ;
0 [label="F10 <= 1.55\ngini = 0.323\nsamples = 262\nvalue = [53, 209]\nclass = 1"] ;
1 [label="F10 <= 1.25\ngini = 0.313\nsamples = 36\nvalue = [29, 7]\nclass = 0"] ;
0 -> 1 [labeldistance=2.5, labelangle=45, headlabel="True"] ;
2 [label="gini = 0.0\nsamples = 17\nvalue = [17, 0]\nclass = 0"] ;
1 -> 2 ;
3 [label="F1 <= 0.65\ngini = 0.465\nsamples = 19\nvalue = [12, 7]\nclass = 0"] ;
1 -> 3 ;
4 [label="F1 <= 0.45\ngini = 0.486\nsamples = 12\nvalue = [5, 7]\nclass = 1"] ;
3 -> 4 ;
5 [label="gini = 0.0\nsamples = 4\nvalue = [4, 0]\nclass = 0"] ;
4 -> 5 ;
6 [label="F1 <= 0.585\ngini = 0.219\nsamples = 8\nvalue = [1, 7]\nclass = 1"] ;
4 -> 6 ;
7 [label="gini = 0.0\nsamples = 6\nvalue = [0, 6]\nclass = 1"] ;
6 -> 7 ;
8 [label="F10 <= 1.4\ngini = 0.5\nsamples = 2\nvalue = [1, 1]\nclass = 0"] ;
6 -> 8 ;
9 [label="gini = 0.0\nsamples = 1\nvalue = [1, 0]\nclass = 0"] ;
8 -> 9 ;
10 [label="gini = 0.0\nsamples = 1\nvalue = [0, 1]\nclass = 1"] ;
8 -> 10 ;
11 [label="gini = 0.0\nsamples = 7\nvalue = [7, 0]\nclass = 0"] ;
3 -> 11 ;
12 [label="F1 <= 0.275\ngini = 0.19\nsamples = 226\nvalue = [24, 202]\nclass = 1"] ;
0 -> 12 [labeldistance=2.5, labelangle=-45, headlabel="False"] ;
13 [label="F10 <= 3.45\ngini = 0.475\nsamples = 31\nvalue = [19, 12]\nclass = 0"] ;
12 -> 13 ;
14 [label="F1 <= 0.255\ngini = 0.095\nsamples = 20\nvalue = [19, 1]\nclass = 0"] ;
13 -> 14 ;
15 [label="gini = 0.0\nsamples = 17\nvalue = [17, 0]\nclass = 0"] ;
14 -> 15 ;
16 [label="F10 <= 2.6\ngini = 0.444\nsamples = 3\nvalue = [2, 1]\nclass = 0"] ;
14 -> 16 ;
17 [label="gini = 0.0\nsamples = 2\nvalue = [2, 0]\nclass = 0"] ;
16 -> 17 ;
18 [label="gini = 0.0\nsamples = 1\nvalue = [0, 1]\nclass = 1"] ;
16 -> 18 ;
19 [label="gini = 0.0\nsamples = 11\nvalue = [0, 11]\nclass = 1"] ;
13 -> 19 ;
20 [label="F10 <= 2.05\ngini = 0.05\nsamples = 195\nvalue = [5, 190]\nclass = 1"] ;
12 -> 20 ;
21 [label="F1 <= 0.365\ngini = 0.278\nsamples = 24\nvalue = [4, 20]\nclass = 1"] ;
20 -> 21 ;
22 [label="gini = 0.0\nsamples = 2\nvalue = [2, 0]\nclass = 0"] ;
21 -> 22 ;
23 [label="F1 <= 0.905\ngini = 0.165\nsamples = 22\nvalue = [2, 20]\nclass = 1"] ;
21 -> 23 ;
24 [label="gini = 0.0\nsamples = 20\nvalue = [0, 20]\nclass = 1"] ;
23 -> 24 ;
25 [label="gini = 0.0\nsamples = 2\nvalue = [2, 0]\nclass = 0"] ;
23 -> 25 ;
26 [label="F1 <= 0.325\ngini = 0.012\nsamples = 171\nvalue = [1, 170]\nclass = 1"] ;
20 -> 26 ;
27 [label="F10 <= 2.45\ngini = 0.165\nsamples = 11\nvalue = [1, 10]\nclass = 1"] ;
26 -> 27 ;
28 [label="gini = 0.0\nsamples = 1\nvalue = [1, 0]\nclass = 0"] ;
27 -> 28 ;
29 [label="gini = 0.0\nsamples = 10\nvalue = [0, 10]\nclass = 1"] ;
27 -> 29 ;
30 [label="gini = 0.0\nsamples = 160\nvalue = [0, 160]\nclass = 1"] ;
26 -> 30 ;
}
