digraph Tree {
node [shape=box] ;
0 [label="population <= 5666.0\ngini = 0.477\nsamples = 671\nvalue = [116, 462, 93]\nclass = 1"] ;
1 [label="population <= 3341.5\ngini = 0.309\nsamples = 114\nvalue = [18, 3, 93]\nclass = 2"] ;
0 -> 1 [labeldistance=2.5, labelangle=45, headlabel="True"] ;
2 [label="gini = 0.0\nsamples = 68\nvalue = [0, 0, 68]\nclass = 2"] ;
1 -> 2 ;
3 [label="median_income <= 5.408\ngini = 0.547\nsamples = 46\nvalue = [18, 3, 25]\nclass = 2"] ;
1 -> 3 ;
4 [label="gini = 0.0\nsamples = 18\nvalue = [0, 0, 18]\nclass = 2"] ;
3 -> 4 ;
5 [label="median_income <= 12.244\ngini = 0.513\nsamples = 28\nvalue = [18, 3, 7]\nclass = 0"] ;
3 -> 5 ;
6 [label="population <= 4625.0\ngini = 0.423\nsamples = 23\nvalue = [16, 0, 7]\nclass = 0"] ;
5 -> 6 ;
7 [label="median_income <= 8.314\ngini = 0.498\nsamples = 15\nvalue = [8, 0, 7]\nclass = 0"] ;
6 -> 7 ;
8 [label="gini = 0.0\nsamples = 5\nvalue = [0, 0, 5]\nclass = 2"] ;
7 -> 8 ;
9 [label="population <= 3478.5\ngini = 0.32\nsamples = 10\nvalue = [8, 0, 2]\nclass = 0"] ;
7 -> 9 ;
10 [label="gini = 0.0\nsamples = 1\nvalue = [0, 0, 1]\nclass = 2"] ;
9 -> 10 ;
11 [label="median_income <= 10.176\ngini = 0.198\nsamples = 9\nvalue = [8, 0, 1]\nclass = 0"] ;
9 -> 11 ;
12 [label="median_income <= 9.386\ngini = 0.5\nsamples = 2\nvalue = [1, 0, 1]\nclass = 0"] ;
11 -> 12 ;
13 [label="gini = 0.0\nsamples = 1\nvalue = [1, 0, 0]\nclass = 0"] ;
12 -> 13 ;
14 [label="gini = 0.0\nsamples = 1\nvalue = [0, 0, 1]\nclass = 2"] ;
12 -> 14 ;
15 [label="gini = 0.0\nsamples = 7\nvalue = [7, 0, 0]\nclass = 0"] ;
11 -> 15 ;
16 [label="gini = 0.0\nsamples = 8\nvalue = [8, 0, 0]\nclass = 0"] ;
6 -> 16 ;
17 [label="population <= 3923.5\ngini = 0.48\nsamples = 5\nvalue = [2, 3, 0]\nclass = 1"] ;
5 -> 17 ;
18 [label="gini = 0.0\nsamples = 2\nvalue = [2, 0, 0]\nclass = 0"] ;
17 -> 18 ;
19 [label="gini = 0.0\nsamples = 3\nvalue = [0, 3, 0]\nclass = 1"] ;
17 -> 19 ;
20 [label="population <= 26988.0\ngini = 0.29\nsamples = 557\nvalue = [98, 459, 0]\nclass = 1"] ;
0 -> 20 [labeldistance=2.5, labelangle=-45, headlabel="False"] ;
21 [label="population <= 21823.0\ngini = 0.109\nsamples = 396\nvalue = [23, 373, 0]\nclass = 1"] ;
20 -> 21 ;
22 [label="population <= 6312.5\ngini = 0.02\nsamples = 295\nvalue = [3, 292, 0]\nclass = 1"] ;
21 -> 22 ;
23 [label="median_income <= 5.694\ngini = 0.32\nsamples = 10\nvalue = [2, 8, 0]\nclass = 1"] ;
22 -> 23 ;
24 [label="gini = 0.0\nsamples = 2\nvalue = [2, 0, 0]\nclass = 0"] ;
23 -> 24 ;
25 [label="gini = 0.0\nsamples = 8\nvalue = [0, 8, 0]\nclass = 1"] ;
23 -> 25 ;
26 [label="population <= 21306.0\ngini = 0.007\nsamples = 285\nvalue = [1, 284, 0]\nclass = 1"] ;
22 -> 26 ;
27 [label="gini = 0.0\nsamples = 275\nvalue = [0, 275, 0]\nclass = 1"] ;
26 -> 27 ;
28 [label="population <= 21345.5\ngini = 0.18\nsamples = 10\nvalue = [1, 9, 0]\nclass = 1"] ;
26 -> 28 ;
29 [label="gini = 0.0\nsamples = 1\nvalue = [1, 0, 0]\nclass = 0"] ;
28 -> 29 ;
30 [label="gini = 0.0\nsamples = 9\nvalue = [0, 9, 0]\nclass = 1"] ;
28 -> 30 ;
31 [label="median_income <= 7.867\ngini = 0.318\nsamples = 101\nvalue = [20, 81, 0]\nclass = 1"] ;
21 -> 31 ;
32 [label="median_income <= 4.053\ngini = 0.473\nsamples = 52\nvalue = [20, 32, 0]\nclass = 1"] ;
31 -> 32 ;
33 [label="gini = 0.0\nsamples = 28\nvalue = [0, 28, 0]\nclass = 1"] ;
32 -> 33 ;
34 [label="median_income <= 6.556\ngini = 0.278\nsamples = 24\nvalue = [20, 4, 0]\nclass = 0"] ;
32 -> 34 ;
35 [label="gini = 0.0\nsamples = 16\nvalue = [16, 0, 0]\nclass = 0"] ;
34 -> 35 ;
36 [label="population <= 24543.0\ngini = 0.5\nsamples = 8\nvalue = [4, 4, 0]\nclass = 0"] ;
34 -> 36 ;
37 [label="gini = 0.0\nsamples = 4\nvalue = [0, 4, 0]\nclass = 1"] ;
36 -> 37 ;
38 [label="gini = 0.0\nsamples = 4\nvalue = [4, 0, 0]\nclass = 0"] ;
36 -> 38 ;
39 [label="gini = 0.0\nsamples = 49\nvalue = [0, 49, 0]\nclass = 1"] ;
31 -> 39 ;
40 [label="median_income <= 11.003\ngini = 0.498\nsamples = 161\nvalue = [75, 86, 0]\nclass = 1"] ;
20 -> 40 ;
41 [label="median_income <= 4.211\ngini = 0.448\nsamples = 112\nvalue = [74, 38, 0]\nclass = 0"] ;
40 -> 41 ;
42 [label="gini = 0.0\nsamples = 29\nvalue = [0, 29, 0]\nclass = 1"] ;
41 -> 42 ;
43 [label="median_income <= 9.608\ngini = 0.193\nsamples = 83\nvalue = [74, 9, 0]\nclass = 0"] ;
41 -> 43 ;
44 [label="gini = 0.0\nsamples = 61\nvalue = [61, 0, 0]\nclass = 0"] ;
43 -> 44 ;
45 [label="population <= 31067.0\ngini = 0.483\nsamples = 22\nvalue = [13, 9, 0]\nclass = 0"] ;
43 -> 45 ;
46 [label="gini = 0.0\nsamples = 9\nvalue = [0, 9, 0]\nclass = 1"] ;
45 -> 46 ;
47 [label="gini = 0.0\nsamples = 13\nvalue = [13, 0, 0]\nclass = 0"] ;
45 -> 47 ;
48 [label="median_income <= 11.386\ngini = 0.04\nsamples = 49\nvalue = [1, 48, 0]\nclass = 1"] ;
40 -> 48 ;
49 [label="median_income <= 11.335\ngini = 0.375\nsamples = 4\nvalue = [1, 3, 0]\nclass = 1"] ;
48 -> 49 ;
50 [label="gini = 0.0\nsamples = 3\nvalue = [0, 3, 0]\nclass = 1"] ;
49 -> 50 ;
51 [label="gini = 0.0\nsamples = 1\nvalue = [1, 0, 0]\nclass = 0"] ;
49 -> 51 ;
52 [label="gini = 0.0\nsamples = 45\nvalue = [0, 45, 0]\nclass = 1"] ;
48 -> 52 ;
}
