digraph Tree {
node [shape=box] ;
0 [label="monthly_income <= 5710.995\ngini = 0.463\nsamples = 1085\nvalue = [690, 395]\nclass = 0"] ;
1 [label="age <= 67.5\ngini = 0.082\nsamples = 562\nvalue = [538, 24]\nclass = 0"] ;
0 -> 1 [labeldistance=2.5, labelangle=45, headlabel="True"] ;
2 [label="gini = 0.0\nsamples = 447\nvalue = [447, 0]\nclass = 0"] ;
1 -> 2 ;
3 [label="monthly_income <= 4514.69\ngini = 0.33\nsamples = 115\nvalue = [91, 24]\nclass = 0"] ;
1 -> 3 ;
4 [label="credit_score <= 306.0\ngini = 0.044\nsamples = 88\nvalue = [86, 2]\nclass = 0"] ;
3 -> 4 ;
5 [label="age <= 78.0\ngini = 0.5\nsamples = 2\nvalue = [1, 1]\nclass = 0"] ;
4 -> 5 ;
6 [label="gini = 0.0\nsamples = 1\nvalue = [0, 1]\nclass = 1"] ;
5 -> 6 ;
7 [label="gini = 0.0\nsamples = 1\nvalue = [1, 0]\nclass = 0"] ;
5 -> 7 ;
8 [label="credit_score <= 391.0\ngini = 0.023\nsamples = 86\nvalue = [85, 1]\nclass = 0"] ;
4 -> 8 ;
9 [label="credit_score <= 386.5\ngini = 0.142\nsamples = 13\nvalue = [12, 1]\nclass = 0"] ;
8 -> 9 ;
10 [label="gini = 0.0\nsamples = 12\nvalue = [12, 0]\nclass = 0"] ;
9 -> 10 ;
11 [label="gini = 0.0\nsamples = 1\nvalue = [0, 1]\nclass = 1"] ;
9 -> 11 ;
12 [label="gini = 0.0\nsamples = 73\nvalue = [73, 0]\nclass = 0"] ;
8 -> 12 ;
13 [label="credit_score <= 750.5\ngini = 0.302\nsamples = 27\nvalue = [5, 22]\nclass = 1"] ;
3 -> 13 ;
14 [label="monthly_income <= 4746.755\ngini = 0.083\nsamples = 23\nvalue = [1, 22]\nclass = 1"] ;
13 -> 14 ;
15 [label="age <= 72.5\ngini = 0.375\nsamples = 4\nvalue = [1, 3]\nclass = 1"] ;
14 -> 15 ;
16 [label="gini = 0.0\nsamples = 1\nvalue = [1, 0]\nclass = 0"] ;
15 -> 16 ;
17 [label="gini = 0.0\nsamples = 3\nvalue = [0, 3]\nclass = 1"] ;
15 -> 17 ;
18 [label="gini = 0.0\nsamples = 19\nvalue = [0, 19]\nclass = 1"] ;
14 -> 18 ;
19 [label="gini = 0.0\nsamples = 4\nvalue = [4, 0]\nclass = 0"] ;
13 -> 19 ;
20 [label="age <= 34.5\ngini = 0.412\nsamples = 523\nvalue = [152, 371]\nclass = 1"] ;
0 -> 20 [labeldistance=2.5, labelangle=-45, headlabel="False"] ;
21 [label="age <= 33.5\ngini = 0.059\nsamples = 132\nvalue = [128, 4]\nclass = 0"] ;
20 -> 21 ;
22 [label="gini = 0.0\nsamples = 123\nvalue = [123, 0]\nclass = 0"] ;
21 -> 22 ;
23 [label="credit_score <= 574.5\ngini = 0.494\nsamples = 9\nvalue = [5, 4]\nclass = 0"] ;
21 -> 23 ;
24 [label="monthly_income <= 6315.435\ngini = 0.32\nsamples = 5\nvalue = [1, 4]\nclass = 1"] ;
23 -> 24 ;
25 [label="gini = 0.0\nsamples = 1\nvalue = [1, 0]\nclass = 0"] ;
24 -> 25 ;
26 [label="gini = 0.0\nsamples = 4\nvalue = [0, 4]\nclass = 1"] ;
24 -> 26 ;
27 [label="gini = 0.0\nsamples = 4\nvalue = [4, 0]\nclass = 0"] ;
23 -> 27 ;
28 [label="monthly_income <= 6358.13\ngini = 0.115\nsamples = 391\nvalue = [24, 367]\nclass = 1"] ;
20 -> 28 ;
29 [label="age <= 56.5\ngini = 0.479\nsamples = 58\nvalue = [23, 35]\nclass = 1"] ;
28 -> 29 ;
30 [label="gini = 0.0\nsamples = 21\nvalue = [21, 0]\nclass = 0"] ;
29 -> 30 ;
31 [label="monthly_income <= 5792.34\ngini = 0.102\nsamples = 37\nvalue = [2, 35]\nclass = 1"] ;
29 -> 31 ;
32 [label="age <= 66.5\ngini = 0.444\nsamples = 6\nvalue = [2, 4]\nclass = 1"] ;
31 -> 32 ;
33 [label="gini = 0.0\nsamples = 2\nvalue = [2, 0]\nclass = 0"] ;
32 -> 33 ;
34 [label="gini = 0.0\nsamples = 4\nvalue = [0, 4]\nclass = 1"] ;
32 -> 34 ;
35 [label="gini = 0.0\nsamples = 31\nvalue = [0, 31]\nclass = 1"] ;
31 -> 35 ;
36 [label="monthly_income <= 6460.89\ngini = 0.006\nsamples = 333\nvalue = [1, 332]\nclass = 1"] ;
28 -> 36 ;
37 [label="monthly_income <= 6442.095\ngini = 0.245\nsamples = 7\nvalue = [1, 6]\nclass = 1"] ;
36 -> 37 ;
38 [label="gini = 0.0\nsamples = 6\nvalue = [0, 6]\nclass = 1"] ;
37 -> 38 ;
39 [label="gini = 0.0\nsamples = 1\nvalue = [1, 0]\nclass = 0"] ;
37 -> 39 ;
40 [label="gini = 0.0\nsamples = 326\nvalue = [0, 326]\nclass = 1"] ;
36 -> 40 ;
}
