digraph Tree {
node [shape=box] ;
0 [label="monthly_income <= 6047.805\ngini = 0.458\nsamples = 850\nvalue = [548, 302]\nclass = 0"] ;
1 [label="age <= 63.5\ngini = 0.124\nsamples = 468\nvalue = [437, 31]\nclass = 0"] ;
0 -> 1 [labeldistance=2.5, labelangle=45, headlabel="True"] ;
2 [label="gini = 0.0\nsamples = 342\nvalue = [342, 0]\nclass = 0"] ;
1 -> 2 ;
3 [label="monthly_income <= 4847.365\ngini = 0.371\nsamples = 126\nvalue = [95, 31]\nclass = 0"] ;
1 -> 3 ;
4 [label="monthly_income <= 3853.83\ngini = 0.135\nsamples = 96\nvalue = [89, 7]\nclass = 0"] ;
3 -> 4 ;
5 [label="gini = 0.0\nsamples = 73\nvalue = [73, 0]\nclass = 0"] ;
4 -> 5 ;
6 [label="credit_score <= 567.5\ngini = 0.423\nsamples = 23\nvalue = [16, 7]\nclass = 0"] ;
4 -> 6 ;
7 [label="age <= 72.0\ngini = 0.346\nsamples = 9\nvalue = [2, 7]\nclass = 1"] ;
6 -> 7 ;
8 [label="monthly_income <= 4225.075\ngini = 0.444\nsamples = 3\nvalue = [2, 1]\nclass = 0"] ;
7 -> 8 ;
9 [label="gini = 0.0\nsamples = 2\nvalue = [2, 0]\nclass = 0"] ;
8 -> 9 ;
10 [label="gini = 0.0\nsamples = 1\nvalue = [0, 1]\nclass = 1"] ;
8 -> 10 ;
11 [label="gini = 0.0\nsamples = 6\nvalue = [0, 6]\nclass = 1"] ;
7 -> 11 ;
12 [label="gini = 0.0\nsamples = 14\nvalue = [14, 0]\nclass = 0"] ;
6 -> 12 ;
13 [label="credit_score <= 711.0\ngini = 0.32\nsamples = 30\nvalue = [6, 24]\nclass = 1"] ;
3 -> 13 ;
14 [label="age <= 64.5\ngini = 0.087\nsamples = 22\nvalue = [1, 21]\nclass = 1"] ;
13 -> 14 ;
15 [label="monthly_income <= 5330.875\ngini = 0.444\nsamples = 3\nvalue = [1, 2]\nclass = 1"] ;
14 -> 15 ;
16 [label="gini = 0.0\nsamples = 1\nvalue = [1, 0]\nclass = 0"] ;
15 -> 16 ;
17 [label="gini = 0.0\nsamples = 2\nvalue = [0, 2]\nclass = 1"] ;
15 -> 17 ;
18 [label="gini = 0.0\nsamples = 19\nvalue = [0, 19]\nclass = 1"] ;
14 -> 18 ;
19 [label="monthly_income <= 5368.48\ngini = 0.469\nsamples = 8\nvalue = [5, 3]\nclass = 0"] ;
13 -> 19 ;
20 [label="gini = 0.0\nsamples = 4\nvalue = [4, 0]\nclass = 0"] ;
19 -> 20 ;
21 [label="age <= 66.0\ngini = 0.375\nsamples = 4\nvalue = [1, 3]\nclass = 1"] ;
19 -> 21 ;
22 [label="gini = 0.0\nsamples = 1\nvalue = [1, 0]\nclass = 0"] ;
21 -> 22 ;
23 [label="gini = 0.0\nsamples = 3\nvalue = [0, 3]\nclass = 1"] ;
21 -> 23 ;
24 [label="age <= 33.5\ngini = 0.412\nsamples = 382\nvalue = [111, 271]\nclass = 1"] ;
0 -> 24 [labeldistance=2.5, labelangle=-45, headlabel="False"] ;
25 [label="gini = 0.0\nsamples = 102\nvalue = [102, 0]\nclass = 0"] ;
24 -> 25 ;
26 [label="monthly_income <= 6647.975\ngini = 0.062\nsamples = 280\nvalue = [9, 271]\nclass = 1"] ;
24 -> 26 ;
27 [label="credit_score <= 866.5\ngini = 0.315\nsamples = 46\nvalue = [9, 37]\nclass = 1"] ;
26 -> 27 ;
28 [label="monthly_income <= 6627.64\ngini = 0.18\nsamples = 40\nvalue = [4, 36]\nclass = 1"] ;
27 -> 28 ;
29 [label="monthly_income <= 6116.665\ngini = 0.142\nsamples = 39\nvalue = [3, 36]\nclass = 1"] ;
28 -> 29 ;
30 [label="age <= 49.0\ngini = 0.444\nsamples = 6\nvalue = [2, 4]\nclass = 1"] ;
29 -> 30 ;
31 [label="gini = 0.0\nsamples = 2\nvalue = [2, 0]\nclass = 0"] ;
30 -> 31 ;
32 [label="gini = 0.0\nsamples = 4\nvalue = [0, 4]\nclass = 1"] ;
30 -> 32 ;
33 [label="dependents <= 5.5\ngini = 0.059\nsamples = 33\nvalue = [1, 32]\nclass = 1"] ;
29 -> 33 ;
34 [label="gini = 0.0\nsamples = 27\nvalue = [0, 27]\nclass = 1"] ;
33 -> 34 ;
35 [label="monthly_income <= 6327.355\ngini = 0.278\nsamples = 6\nvalue = [1, 5]\nclass = 1"] ;
33 -> 35 ;
36 [label="monthly_income <= 6282.94\ngini = 0.5\nsamples = 2\nvalue = [1, 1]\nclass = 0"] ;
35 -> 36 ;
37 [label="gini = 0.0\nsamples = 1\nvalue = [0, 1]\nclass = 1"] ;
36 -> 37 ;
38 [label="gini = 0.0\nsamples = 1\nvalue = [1, 0]\nclass = 0"] ;
36 -> 38 ;
39 [label="gini = 0.0\nsamples = 4\nvalue = [0, 4]\nclass = 1"] ;
35 -> 39 ;
40 [label="gini = 0.0\nsamples = 1\nvalue = [1, 0]\nclass = 0"] ;
28 -> 40 ;
41 [label="age <= 64.0\ngini = 0.278\nsamples = 6\nvalue = [5, 1]\nclass = 0"] ;
27 -> 41 ;
42 [label="gini = 0.0\nsamples = 5\nvalue = [5, 0]\nclass = 0"] ;
41 -> 42 ;
43 [label="gini = 0.0\nsamples = 1\nvalue = [0, 1]\nclass = 1"] ;
41 -> 43 ;
44 [label="gini = 0.0\nsamples = 234\nvalue = [0, 234]\nclass = 1"] ;
26 -> 44 ;
}
