digraph Tree {
node [shape=box] ;
0 [label="clouds <= 3.5\ngini = 0.39\nsamples = 958\nvalue = [254, 704]\nclass = 1"] ;
1 [label="day_time <= 74184.398\ngini = 0.332\nsamples = 637\nvalue = [134, 503]\nclass = 1"] ;
0 -> 1 [labeldistance=2.5, labelangle=45, headlabel="True"] ;
2 [label="day_time <= 53844.994\ngini = 0.436\nsamples = 314\nvalue = [101, 213]\nclass = 1"] ;
1 -> 2 ;
3 [label="clouds <= 2.5\ngini = 0.041\nsamples = 48\nvalue = [1, 47]\nclass = 1"] ;
2 -> 3 ;
4 [label="gini = 0.0\nsamples = 35\nvalue = [0, 35]\nclass = 1"] ;
3 -> 4 ;
5 [label="day_time <= 51070.346\ngini = 0.142\nsamples = 13\nvalue = [1, 12]\nclass = 1"] ;
3 -> 5 ;
6 [label="gini = 0.0\nsamples = 6\nvalue = [0, 6]\nclass = 1"] ;
5 -> 6 ;
7 [label="day_time <= 52022.275\ngini = 0.245\nsamples = 7\nvalue = [1, 6]\nclass = 1"] ;
5 -> 7 ;
8 [label="gini = 0.0\nsamples = 1\nvalue = [1, 0]\nclass = 0"] ;
7 -> 8 ;
9 [label="gini = 0.0\nsamples = 6\nvalue = [0, 6]\nclass = 1"] ;
7 -> 9 ;
10 [label="day_time <= 70776.887\ngini = 0.469\nsamples = 266\nvalue = [100, 166]\nclass = 1"] ;
2 -> 10 ;
11 [label="day_time <= 70034.938\ngini = 0.449\nsamples = 226\nvalue = [77, 149]\nclass = 1"] ;
10 -> 11 ;
12 [label="day_time <= 69719.727\ngini = 0.458\nsamples = 214\nvalue = [76, 138]\nclass = 1"] ;
11 -> 12 ;
13 [label="day_time <= 60527.4\ngini = 0.453\nsamples = 211\nvalue = [73, 138]\nclass = 1"] ;
12 -> 13 ;
14 [label="clouds <= 2.5\ngini = 0.393\nsamples = 93\nvalue = [25, 68]\nclass = 1"] ;
13 -> 14 ;
15 [label="clouds <= 0.5\ngini = 0.438\nsamples = 74\nvalue = [24, 50]\nclass = 1"] ;
14 -> 15 ;
16 [label="day_time <= 54621.254\ngini = 0.49\nsamples = 28\nvalue = [12, 16]\nclass = 1"] ;
15 -> 16 ;
17 [label="gini = 0.0\nsamples = 3\nvalue = [3, 0]\nclass = 0"] ;
16 -> 17 ;
18 [label="day_time <= 55918.047\ngini = 0.461\nsamples = 25\nvalue = [9, 16]\nclass = 1"] ;
16 -> 18 ;
19 [label="gini = 0.0\nsamples = 4\nvalue = [0, 4]\nclass = 1"] ;
18 -> 19 ;
20 [label="day_time <= 59914.422\ngini = 0.49\nsamples = 21\nvalue = [9, 12]\nclass = 1"] ;
18 -> 20 ;
21 [label="day_time <= 58405.457\ngini = 0.498\nsamples = 17\nvalue = [9, 8]\nclass = 0"] ;
20 -> 21 ;
22 [label="day_time <= 56742.549\ngini = 0.463\nsamples = 11\nvalue = [4, 7]\nclass = 1"] ;
21 -> 22 ;
23 [label="day_time <= 56389.771\ngini = 0.444\nsamples = 6\nvalue = [4, 2]\nclass = 0"] ;
22 -> 23 ;
24 [label="day_time <= 56097.24\ngini = 0.5\nsamples = 4\nvalue = [2, 2]\nclass = 0"] ;
23 -> 24 ;
25 [label="gini = 0.0\nsamples = 1\nvalue = [1, 0]\nclass = 0"] ;
24 -> 25 ;
26 [label="day_time <= 56196.029\ngini = 0.444\nsamples = 3\nvalue = [1, 2]\nclass = 1"] ;
24 -> 26 ;
27 [label="gini = 0.0\nsamples = 1\nvalue = [0, 1]\nclass = 1"] ;
26 -> 27 ;
28 [label="day_time <= 56284.035\ngini = 0.5\nsamples = 2\nvalue = [1, 1]\nclass = 0"] ;
26 -> 28 ;
29 [label="gini = 0.0\nsamples = 1\nvalue = [1, 0]\nclass = 0"] ;
28 -> 29 ;
30 [label="gini = 0.0\nsamples = 1\nvalue = [0, 1]\nclass = 1"] ;
28 -> 30 ;
31 [label="gini = 0.0\nsamples = 2\nvalue = [2, 0]\nclass = 0"] ;
23 -> 31 ;
32 [label="gini = 0.0\nsamples = 5\nvalue = [0, 5]\nclass = 1"] ;
22 -> 32 ;
33 [label="day_time <= 59551.141\ngini = 0.278\nsamples = 6\nvalue = [5, 1]\nclass = 0"] ;
21 -> 33 ;
34 [label="day_time <= 59049.367\ngini = 0.444\nsamples = 3\nvalue = [2, 1]\nclass = 0"] ;
33 -> 34 ;
35 [label="gini = 0.0\nsamples = 2\nvalue = [2, 0]\nclass = 0"] ;
34 -> 35 ;
36 [label="gini = 0.0\nsamples = 1\nvalue = [0, 1]\nclass = 1"] ;
34 -> 36 ;
37 [label="gini = 0.0\nsamples = 3\nvalue = [3, 0]\nclass = 0"] ;
33 -> 37 ;
38 [label="gini = 0.0\nsamples = 4\nvalue = [0, 4]\nclass = 1"] ;
20 -> 38 ;
39 [label="clouds <= 1.5\ngini = 0.386\nsamples = 46\nvalue = [12, 34]\nclass = 1"] ;
15 -> 39 ;
40 [label="day_time <= 55752.65\ngini = 0.278\nsamples = 24\nvalue = [4, 20]\nclass = 1"] ;
39 -> 40 ;
41 [label="day_time <= 55479.355\ngini = 0.408\nsamples = 7\nvalue = [2, 5]\nclass = 1"] ;
40 -> 41 ;
42 [label="day_time <= 54753.703\ngini = 0.278\nsamples = 6\nvalue = [1, 5]\nclass = 1"] ;
41 -> 42 ;
43 [label="gini = 0.0\nsamples = 3\nvalue = [0, 3]\nclass = 1"] ;
42 -> 43 ;
44 [label="day_time <= 55035.324\ngini = 0.444\nsamples = 3\nvalue = [1, 2]\nclass = 1"] ;
42 -> 44 ;
45 [label="gini = 0.0\nsamples = 1\nvalue = [1, 0]\nclass = 0"] ;
44 -> 45 ;
46 [label="gini = 0.0\nsamples = 2\nvalue = [0, 2]\nclass = 1"] ;
44 -> 46 ;
47 [label="gini = 0.0\nsamples = 1\nvalue = [1, 0]\nclass = 0"] ;
41 -> 47 ;
48 [label="day_time <= 59539.332\ngini = 0.208\nsamples = 17\nvalue = [2, 15]\nclass = 1"] ;
40 -> 48 ;
49 [label="gini = 0.0\nsamples = 10\nvalue = [0, 10]\nclass = 1"] ;
48 -> 49 ;
50 [label="day_time <= 59903.49\ngini = 0.408\nsamples = 7\nvalue = [2, 5]\nclass = 1"] ;
48 -> 50 ;
51 [label="day_time <= 59567.059\ngini = 0.444\nsamples = 3\nvalue = [2, 1]\nclass = 0"] ;
50 -> 51 ;
52 [label="gini = 0.0\nsamples = 1\nvalue = [1, 0]\nclass = 0"] ;
51 -> 52 ;
53 [label="day_time <= 59701.377\ngini = 0.5\nsamples = 2\nvalue = [1, 1]\nclass = 0"] ;
51 -> 53 ;
54 [label="gini = 0.0\nsamples = 1\nvalue = [0, 1]\nclass = 1"] ;
53 -> 54 ;
55 [label="gini = 0.0\nsamples = 1\nvalue = [1, 0]\nclass = 0"] ;
53 -> 55 ;
56 [label="gini = 0.0\nsamples = 4\nvalue = [0, 4]\nclass = 1"] ;
50 -> 56 ;
57 [label="day_time <= 55030.877\ngini = 0.463\nsamples = 22\nvalue = [8, 14]\nclass = 1"] ;
39 -> 57 ;
58 [label="gini = 0.0\nsamples = 3\nvalue = [0, 3]\nclass = 1"] ;
57 -> 58 ;
59 [label="day_time <= 55442.348\ngini = 0.488\nsamples = 19\nvalue = [8, 11]\nclass = 1"] ;
57 -> 59 ;
60 [label="gini = 0.0\nsamples = 1\nvalue = [1, 0]\nclass = 0"] ;
59 -> 60 ;
61 [label="day_time <= 59863.215\ngini = 0.475\nsamples = 18\nvalue = [7, 11]\nclass = 1"] ;
59 -> 61 ;
62 [label="day_time <= 56543.328\ngini = 0.457\nsamples = 17\nvalue = [6, 11]\nclass = 1"] ;
61 -> 62 ;
63 [label="day_time <= 56241.648\ngini = 0.5\nsamples = 6\nvalue = [3, 3]\nclass = 0"] ;
62 -> 63 ;
64 [label="day_time <= 55964.697\ngini = 0.375\nsamples = 4\nvalue = [1, 3]\nclass = 1"] ;
63 -> 64 ;
65 [label="day_time <= 55842.141\ngini = 0.5\nsamples = 2\nvalue = [1, 1]\nclass = 0"] ;
64 -> 65 ;
66 [label="gini = 0.0\nsamples = 1\nvalue = [0, 1]\nclass = 1"] ;
65 -> 66 ;
67 [label="gini = 0.0\nsamples = 1\nvalue = [1, 0]\nclass = 0"] ;
65 -> 67 ;
68 [label="gini = 0.0\nsamples = 2\nvalue = [0, 2]\nclass = 1"] ;
64 -> 68 ;
69 [label="gini = 0.0\nsamples = 2\nvalue = [2, 0]\nclass = 0"] ;
63 -> 69 ;
70 [label="day_time <= 57637.484\ngini = 0.397\nsamples = 11\nvalue = [3, 8]\nclass = 1"] ;
62 -> 70 ;
71 [label="day_time <= 56762.793\ngini = 0.245\nsamples = 7\nvalue = [1, 6]\nclass = 1"] ;
70 -> 71 ;
72 [label="gini = 0.0\nsamples = 3\nvalue = [0, 3]\nclass = 1"] ;
71 -> 72 ;
73 [label="day_time <= 56925.908\ngini = 0.375\nsamples = 4\nvalue = [1, 3]\nclass = 1"] ;
71 -> 73 ;
74 [label="gini = 0.0\nsamples = 1\nvalue = [1, 0]\nclass = 0"] ;
73 -> 74 ;
75 [label="gini = 0.0\nsamples = 3\nvalue = [0, 3]\nclass = 1"] ;
73 -> 75 ;
76 [label="day_time <= 57960.043\ngini = 0.5\nsamples = 4\nvalue = [2, 2]\nclass = 0"] ;
70 -> 76 ;
77 [label="gini = 0.0\nsamples = 1\nvalue = [1, 0]\nclass = 0"] ;
76 -> 77 ;
78 [label="day_time <= 58551.74\ngini = 0.444\nsamples = 3\nvalue = [1, 2]\nclass = 1"] ;
76 -> 78 ;
79 [label="gini = 0.0\nsamples = 1\nvalue = [0, 1]\nclass = 1"] ;
78 -> 79 ;
80 [label="day_time <= 59148.041\ngini = 0.5\nsamples = 2\nvalue = [1, 1]\nclass = 0"] ;
78 -> 80 ;
81 [label="gini = 0.0\nsamples = 1\nvalue = [1, 0]\nclass = 0"] ;
80 -> 81 ;
82 [label="gini = 0.0\nsamples = 1\nvalue = [0, 1]\nclass = 1"] ;
80 -> 82 ;
83 [label="gini = 0.0\nsamples = 1\nvalue = [1, 0]\nclass = 0"] ;
61 -> 83 ;
84 [label="day_time <= 56753.393\ngini = 0.1\nsamples = 19\nvalue = [1, 18]\nclass = 1"] ;
14 -> 84 ;
85 [label="day_time <= 56474.289\ngini = 0.219\nsamples = 8\nvalue = [1, 7]\nclass = 1"] ;
84 -> 85 ;
86 [label="gini = 0.0\nsamples = 7\nvalue = [0, 7]\nclass = 1"] ;
85 -> 86 ;
87 [label="gini = 0.0\nsamples = 1\nvalue = [1, 0]\nclass = 0"] ;
85 -> 87 ;
88 [label="gini = 0.0\nsamples = 11\nvalue = [0, 11]\nclass = 1"] ;
84 -> 88 ;
89 [label="day_time <= 61014.23\ngini = 0.483\nsamples = 118\nvalue = [48, 70]\nclass = 1"] ;
13 -> 89 ;
90 [label="clouds <= 2.5\ngini = 0.278\nsamples = 6\nvalue = [5, 1]\nclass = 0"] ;
89 -> 90 ;
91 [label="gini = 0.0\nsamples = 4\nvalue = [4, 0]\nclass = 0"] ;
90 -> 91 ;
92 [label="day_time <= 60807.385\ngini = 0.5\nsamples = 2\nvalue = [1, 1]\nclass = 0"] ;
90 -> 92 ;
93 [label="gini = 0.0\nsamples = 1\nvalue = [0, 1]\nclass = 1"] ;
92 -> 93 ;
94 [label="gini = 0.0\nsamples = 1\nvalue = [1, 0]\nclass = 0"] ;
92 -> 94 ;
95 [label="day_time <= 61098.082\ngini = 0.473\nsamples = 112\nvalue = [43, 69]\nclass = 1"] ;
89 -> 95 ;
96 [label="gini = 0.0\nsamples = 2\nvalue = [0, 2]\nclass = 1"] ;
95 -> 96 ;
97 [label="day_time <= 61253.699\ngini = 0.476\nsamples = 110\nvalue = [43, 67]\nclass = 1"] ;
95 -> 97 ;
98 [label="gini = 0.0\nsamples = 2\nvalue = [2, 0]\nclass = 0"] ;
97 -> 98 ;
99 [label="day_time <= 61558.094\ngini = 0.471\nsamples = 108\nvalue = [41, 67]\nclass = 1"] ;
97 -> 99 ;
100 [label="gini = 0.0\nsamples = 3\nvalue = [0, 3]\nclass = 1"] ;
99 -> 100 ;
101 [label="day_time <= 61715.195\ngini = 0.476\nsamples = 105\nvalue = [41, 64]\nclass = 1"] ;
99 -> 101 ;
102 [label="clouds <= 1.0\ngini = 0.32\nsamples = 5\nvalue = [4, 1]\nclass = 0"] ;
101 -> 102 ;
103 [label="gini = 0.0\nsamples = 1\nvalue = [0, 1]\nclass = 1"] ;
102 -> 103 ;
104 [label="gini = 0.0\nsamples = 4\nvalue = [4, 0]\nclass = 0"] ;
102 -> 104 ;
105 [label="day_time <= 62084.777\ngini = 0.466\nsamples = 100\nvalue = [37, 63]\nclass = 1"] ;
101 -> 105 ;
106 [label="gini = 0.0\nsamples = 6\nvalue = [0, 6]\nclass = 1"] ;
105 -> 106 ;
107 [label="day_time <= 62336.432\ngini = 0.477\nsamples = 94\nvalue = [37, 57]\nclass = 1"] ;
105 -> 107 ;
108 [label="gini = 0.0\nsamples = 3\nvalue = [3, 0]\nclass = 0"] ;
107 -> 108 ;
109 [label="day_time <= 63961.248\ngini = 0.468\nsamples = 91\nvalue = [34, 57]\nclass = 1"] ;
107 -> 109 ;
110 [label="day_time <= 63362.789\ngini = 0.337\nsamples = 14\nvalue = [3, 11]\nclass = 1"] ;
109 -> 110 ;
111 [label="day_time <= 63118.191\ngini = 0.444\nsamples = 9\nvalue = [3, 6]\nclass = 1"] ;
110 -> 111 ;
112 [label="day_time <= 62471.566\ngini = 0.375\nsamples = 8\nvalue = [2, 6]\nclass = 1"] ;
111 -> 112 ;
113 [label="gini = 0.0\nsamples = 2\nvalue = [0, 2]\nclass = 1"] ;
112 -> 113 ;
114 [label="day_time <= 62590.402\ngini = 0.444\nsamples = 6\nvalue = [2, 4]\nclass = 1"] ;
112 -> 114 ;
115 [label="gini = 0.0\nsamples = 1\nvalue = [1, 0]\nclass = 0"] ;
114 -> 115 ;
116 [label="clouds <= 1.5\ngini = 0.32\nsamples = 5\nvalue = [1, 4]\nclass = 1"] ;
114 -> 116 ;
117 [label="day_time <= 62743.182\ngini = 0.5\nsamples = 2\nvalue = [1, 1]\nclass = 0"] ;
116 -> 117 ;
118 [label="gini = 0.0\nsamples = 1\nvalue = [1, 0]\nclass = 0"] ;
117 -> 118 ;
119 [label="gini = 0.0\nsamples = 1\nvalue = [0, 1]\nclass = 1"] ;
117 -> 119 ;
120 [label="gini = 0.0\nsamples = 3\nvalue = [0, 3]\nclass = 1"] ;
116 -> 120 ;
121 [label="gini = 0.0\nsamples = 1\nvalue = [1, 0]\nclass = 0"] ;
111 -> 121 ;
122 [label="gini = 0.0\nsamples = 5\nvalue = [0, 5]\nclass = 1"] ;
110 -> 122 ;
123 [label="day_time <= 65999.551\ngini = 0.481\nsamples = 77\nvalue = [31, 46]\nclass = 1"] ;
109 -> 123 ;
124 [label="day_time <= 65322.68\ngini = 0.499\nsamples = 25\nvalue = [13, 12]\nclass = 0"] ;
123 -> 124 ;
125 [label="day_time <= 64726.951\ngini = 0.484\nsamples = 17\nvalue = [7, 10]\nclass = 1"] ;
124 -> 125 ;
126 [label="day_time <= 64596.463\ngini = 0.494\nsamples = 9\nvalue = [5, 4]\nclass = 0"] ;
125 -> 126 ;
127 [label="day_time <= 64109.441\ngini = 0.48\nsamples = 5\nvalue = [2, 3]\nclass = 1"] ;
126 -> 127 ;
128 [label="gini = 0.0\nsamples = 1\nvalue = [1, 0]\nclass = 0"] ;
127 -> 128 ;
129 [label="day_time <= 64268.234\ngini = 0.375\nsamples = 4\nvalue = [1, 3]\nclass = 1"] ;
127 -> 129 ;
130 [label="gini = 0.0\nsamples = 2\nvalue = [0, 2]\nclass = 1"] ;
129 -> 130 ;
131 [label="day_time <= 64420.441\ngini = 0.5\nsamples = 2\nvalue = [1, 1]\nclass = 0"] ;
129 -> 131 ;
132 [label="gini = 0.0\nsamples = 1\nvalue = [1, 0]\nclass = 0"] ;
131 -> 132 ;
133 [label="gini = 0.0\nsamples = 1\nvalue = [0, 1]\nclass = 1"] ;
131 -> 133 ;
134 [label="clouds <= 2.5\ngini = 0.375\nsamples = 4\nvalue = [3, 1]\nclass = 0"] ;
126 -> 134 ;
135 [label="clouds <= 1.0\ngini = 0.5\nsamples = 2\nvalue = [1, 1]\nclass = 0"] ;
134 -> 135 ;
136 [label="gini = 0.0\nsamples = 1\nvalue = [1, 0]\nclass = 0"] ;
135 -> 136 ;
137 [label="gini = 0.0\nsamples = 1\nvalue = [0, 1]\nclass = 1"] ;
135 -> 137 ;
138 [label="gini = 0.0\nsamples = 2\nvalue = [2, 0]\nclass = 0"] ;
134 -> 138 ;
139 [label="day_time <= 64820.387\ngini = 0.375\nsamples = 8\nvalue = [2, 6]\nclass = 1"] ;
125 -> 139 ;
140 [label="gini = 0.0\nsamples = 4\nvalue = [0, 4]\nclass = 1"] ;
139 -> 140 ;
141 [label="day_time <= 65005.574\ngini = 0.5\nsamples = 4\nvalue = [2, 2]\nclass = 0"] ;
139 -> 141 ;
142 [label="gini = 0.0\nsamples = 2\nvalue = [2, 0]\nclass = 0"] ;
141 -> 142 ;
143 [label="gini = 0.0\nsamples = 2\nvalue = [0, 2]\nclass = 1"] ;
141 -> 143 ;
144 [label="day_time <= 65506.381\ngini = 0.375\nsamples = 8\nvalue = [6, 2]\nclass = 0"] ;
124 -> 144 ;
145 [label="gini = 0.0\nsamples = 3\nvalue = [3, 0]\nclass = 0"] ;
144 -> 145 ;
146 [label="day_time <= 65618.012\ngini = 0.48\nsamples = 5\nvalue = [3, 2]\nclass = 0"] ;
144 -> 146 ;
147 [label="gini = 0.0\nsamples = 1\nvalue = [0, 1]\nclass = 1"] ;
146 -> 147 ;
148 [label="day_time <= 65874.824\ngini = 0.375\nsamples = 4\nvalue = [3, 1]\nclass = 0"] ;
146 -> 148 ;
149 [label="gini = 0.0\nsamples = 2\nvalue = [2, 0]\nclass = 0"] ;
148 -> 149 ;
150 [label="day_time <= 65944.328\ngini = 0.5\nsamples = 2\nvalue = [1, 1]\nclass = 0"] ;
148 -> 150 ;
151 [label="gini = 0.0\nsamples = 1\nvalue = [0, 1]\nclass = 1"] ;
150 -> 151 ;
152 [label="gini = 0.0\nsamples = 1\nvalue = [1, 0]\nclass = 0"] ;
150 -> 152 ;
153 [label="day_time <= 66658.348\ngini = 0.453\nsamples = 52\nvalue = [18, 34]\nclass = 1"] ;
123 -> 153 ;
154 [label="gini = 0.0\nsamples = 6\nvalue = [0, 6]\nclass = 1"] ;
153 -> 154 ;
155 [label="day_time <= 67004.637\ngini = 0.476\nsamples = 46\nvalue = [18, 28]\nclass = 1"] ;
153 -> 155 ;
156 [label="gini = 0.0\nsamples = 2\nvalue = [2, 0]\nclass = 0"] ;
155 -> 156 ;
157 [label="day_time <= 67163.504\ngini = 0.463\nsamples = 44\nvalue = [16, 28]\nclass = 1"] ;
155 -> 157 ;
158 [label="gini = 0.0\nsamples = 3\nvalue = [0, 3]\nclass = 1"] ;
157 -> 158 ;
159 [label="day_time <= 67218.949\ngini = 0.476\nsamples = 41\nvalue = [16, 25]\nclass = 1"] ;
157 -> 159 ;
160 [label="gini = 0.0\nsamples = 1\nvalue = [1, 0]\nclass = 0"] ;
159 -> 160 ;
161 [label="day_time <= 67563.59\ngini = 0.469\nsamples = 40\nvalue = [15, 25]\nclass = 1"] ;
159 -> 161 ;
162 [label="clouds <= 2.5\ngini = 0.278\nsamples = 6\nvalue = [1, 5]\nclass = 1"] ;
161 -> 162 ;
163 [label="gini = 0.0\nsamples = 5\nvalue = [0, 5]\nclass = 1"] ;
162 -> 163 ;
164 [label="gini = 0.0\nsamples = 1\nvalue = [1, 0]\nclass = 0"] ;
162 -> 164 ;
165 [label="day_time <= 69396.691\ngini = 0.484\nsamples = 34\nvalue = [14, 20]\nclass = 1"] ;
161 -> 165 ;
166 [label="day_time <= 69249.277\ngini = 0.497\nsamples = 28\nvalue = [13, 15]\nclass = 1"] ;
165 -> 166 ;
167 [label="clouds <= 1.5\ngini = 0.488\nsamples = 26\nvalue = [11, 15]\nclass = 1"] ;
166 -> 167 ;
168 [label="day_time <= 68241.965\ngini = 0.49\nsamples = 14\nvalue = [8, 6]\nclass = 0"] ;
167 -> 168 ;
169 [label="day_time <= 67985.07\ngini = 0.278\nsamples = 6\nvalue = [5, 1]\nclass = 0"] ;
168 -> 169 ;
170 [label="day_time <= 67846.504\ngini = 0.444\nsamples = 3\nvalue = [2, 1]\nclass = 0"] ;
169 -> 170 ;
171 [label="gini = 0.0\nsamples = 2\nvalue = [2, 0]\nclass = 0"] ;
170 -> 171 ;
172 [label="gini = 0.0\nsamples = 1\nvalue = [0, 1]\nclass = 1"] ;
170 -> 172 ;
173 [label="gini = 0.0\nsamples = 3\nvalue = [3, 0]\nclass = 0"] ;
169 -> 173 ;
174 [label="day_time <= 68850.234\ngini = 0.469\nsamples = 8\nvalue = [3, 5]\nclass = 1"] ;
168 -> 174 ;
175 [label="gini = 0.0\nsamples = 3\nvalue = [0, 3]\nclass = 1"] ;
174 -> 175 ;
176 [label="day_time <= 68944.859\ngini = 0.48\nsamples = 5\nvalue = [3, 2]\nclass = 0"] ;
174 -> 176 ;
177 [label="gini = 0.0\nsamples = 2\nvalue = [2, 0]\nclass = 0"] ;
176 -> 177 ;
178 [label="day_time <= 69041.273\ngini = 0.444\nsamples = 3\nvalue = [1, 2]\nclass = 1"] ;
176 -> 178 ;
179 [label="gini = 0.0\nsamples = 1\nvalue = [0, 1]\nclass = 1"] ;
178 -> 179 ;
180 [label="day_time <= 69153.074\ngini = 0.5\nsamples = 2\nvalue = [1, 1]\nclass = 0"] ;
178 -> 180 ;
181 [label="gini = 0.0\nsamples = 1\nvalue = [1, 0]\nclass = 0"] ;
180 -> 181 ;
182 [label="gini = 0.0\nsamples = 1\nvalue = [0, 1]\nclass = 1"] ;
180 -> 182 ;
183 [label="day_time <= 68276.363\ngini = 0.375\nsamples = 12\nvalue = [3, 9]\nclass = 1"] ;
167 -> 183 ;
184 [label="gini = 0.0\nsamples = 4\nvalue = [0, 4]\nclass = 1"] ;
183 -> 184 ;
185 [label="day_time <= 68405.07\ngini = 0.469\nsamples = 8\nvalue = [3, 5]\nclass = 1"] ;
183 -> 185 ;
186 [label="gini = 0.0\nsamples = 1\nvalue = [1, 0]\nclass = 0"] ;
185 -> 186 ;
187 [label="day_time <= 68878.695\ngini = 0.408\nsamples = 7\nvalue = [2, 5]\nclass = 1"] ;
185 -> 187 ;
188 [label="day_time <= 68851.289\ngini = 0.48\nsamples = 5\nvalue = [2, 3]\nclass = 1"] ;
187 -> 188 ;
189 [label="day_time <= 68540.363\ngini = 0.375\nsamples = 4\nvalue = [1, 3]\nclass = 1"] ;
188 -> 189 ;
190 [label="day_time <= 68492.016\ngini = 0.5\nsamples = 2\nvalue = [1, 1]\nclass = 0"] ;
189 -> 190 ;
191 [label="gini = 0.0\nsamples = 1\nvalue = [0, 1]\nclass = 1"] ;
190 -> 191 ;
192 [label="gini = 0.0\nsamples = 1\nvalue = [1, 0]\nclass = 0"] ;
190 -> 192 ;
193 [label="gini = 0.0\nsamples = 2\nvalue = [0, 2]\nclass = 1"] ;
189 -> 193 ;
194 [label="gini = 0.0\nsamples = 1\nvalue = [1, 0]\nclass = 0"] ;
188 -> 194 ;
195 [label="gini = 0.0\nsamples = 2\nvalue = [0, 2]\nclass = 1"] ;
187 -> 195 ;
196 [label="gini = 0.0\nsamples = 2\nvalue = [2, 0]\nclass = 0"] ;
166 -> 196 ;
197 [label="day_time <= 69428.887\ngini = 0.278\nsamples = 6\nvalue = [1, 5]\nclass = 1"] ;
165 -> 197 ;
198 [label="gini = 0.0\nsamples = 3\nvalue = [0, 3]\nclass = 1"] ;
197 -> 198 ;
199 [label="day_time <= 69502.574\ngini = 0.444\nsamples = 3\nvalue = [1, 2]\nclass = 1"] ;
197 -> 199 ;
200 [label="gini = 0.0\nsamples = 1\nvalue = [1, 0]\nclass = 0"] ;
199 -> 200 ;
201 [label="gini = 0.0\nsamples = 2\nvalue = [0, 2]\nclass = 1"] ;
199 -> 201 ;
202 [label="gini = 0.0\nsamples = 3\nvalue = [3, 0]\nclass = 0"] ;
12 -> 202 ;
203 [label="day_time <= 70657.18\ngini = 0.153\nsamples = 12\nvalue = [1, 11]\nclass = 1"] ;
11 -> 203 ;
204 [label="gini = 0.0\nsamples = 9\nvalue = [0, 9]\nclass = 1"] ;
203 -> 204 ;
205 [label="day_time <= 70685.793\ngini = 0.444\nsamples = 3\nvalue = [1, 2]\nclass = 1"] ;
203 -> 205 ;
206 [label="gini = 0.0\nsamples = 1\nvalue = [1, 0]\nclass = 0"] ;
205 -> 206 ;
207 [label="gini = 0.0\nsamples = 2\nvalue = [0, 2]\nclass = 1"] ;
205 -> 207 ;
208 [label="day_time <= 72013.68\ngini = 0.489\nsamples = 40\nvalue = [23, 17]\nclass = 0"] ;
10 -> 208 ;
209 [label="day_time <= 71026.371\ngini = 0.337\nsamples = 14\nvalue = [11, 3]\nclass = 0"] ;
208 -> 209 ;
210 [label="gini = 0.0\nsamples = 4\nvalue = [4, 0]\nclass = 0"] ;
209 -> 210 ;
211 [label="day_time <= 71105.777\ngini = 0.42\nsamples = 10\nvalue = [7, 3]\nclass = 0"] ;
209 -> 211 ;
212 [label="day_time <= 71043.332\ngini = 0.444\nsamples = 3\nvalue = [1, 2]\nclass = 1"] ;
211 -> 212 ;
213 [label="gini = 0.0\nsamples = 1\nvalue = [0, 1]\nclass = 1"] ;
212 -> 213 ;
214 [label="clouds <= 0.5\ngini = 0.5\nsamples = 2\nvalue = [1, 1]\nclass = 0"] ;
212 -> 214 ;
215 [label="gini = 0.0\nsamples = 1\nvalue = [0, 1]\nclass = 1"] ;
214 -> 215 ;
216 [label="gini = 0.0\nsamples = 1\nvalue = [1, 0]\nclass = 0"] ;
214 -> 216 ;
217 [label="day_time <= 71742.281\ngini = 0.245\nsamples = 7\nvalue = [6, 1]\nclass = 0"] ;
211 -> 217 ;
218 [label="gini = 0.0\nsamples = 4\nvalue = [4, 0]\nclass = 0"] ;
217 -> 218 ;
219 [label="day_time <= 71766.164\ngini = 0.444\nsamples = 3\nvalue = [2, 1]\nclass = 0"] ;
217 -> 219 ;
220 [label="gini = 0.0\nsamples = 1\nvalue = [0, 1]\nclass = 1"] ;
219 -> 220 ;
221 [label="gini = 0.0\nsamples = 2\nvalue = [2, 0]\nclass = 0"] ;
219 -> 221 ;
222 [label="day_time <= 73632.832\ngini = 0.497\nsamples = 26\nvalue = [12, 14]\nclass = 1"] ;
208 -> 222 ;
223 [label="day_time <= 72256.211\ngini = 0.455\nsamples = 20\nvalue = [7, 13]\nclass = 1"] ;
222 -> 223 ;
224 [label="gini = 0.0\nsamples = 3\nvalue = [0, 3]\nclass = 1"] ;
223 -> 224 ;
225 [label="day_time <= 72413.68\ngini = 0.484\nsamples = 17\nvalue = [7, 10]\nclass = 1"] ;
223 -> 225 ;
226 [label="gini = 0.0\nsamples = 2\nvalue = [2, 0]\nclass = 0"] ;
225 -> 226 ;
227 [label="day_time <= 72706.535\ngini = 0.444\nsamples = 15\nvalue = [5, 10]\nclass = 1"] ;
225 -> 227 ;
228 [label="gini = 0.0\nsamples = 4\nvalue = [0, 4]\nclass = 1"] ;
227 -> 228 ;
229 [label="day_time <= 73462.871\ngini = 0.496\nsamples = 11\nvalue = [5, 6]\nclass = 1"] ;
227 -> 229 ;
230 [label="clouds <= 0.5\ngini = 0.469\nsamples = 8\nvalue = [5, 3]\nclass = 0"] ;
229 -> 230 ;
231 [label="gini = 0.0\nsamples = 1\nvalue = [0, 1]\nclass = 1"] ;
230 -> 231 ;
232 [label="clouds <= 2.5\ngini = 0.408\nsamples = 7\nvalue = [5, 2]\nclass = 0"] ;
230 -> 232 ;
233 [label="day_time <= 72947.949\ngini = 0.48\nsamples = 5\nvalue = [3, 2]\nclass = 0"] ;
232 -> 233 ;
234 [label="gini = 0.0\nsamples = 2\nvalue = [2, 0]\nclass = 0"] ;
233 -> 234 ;
235 [label="day_time <= 73158.316\ngini = 0.444\nsamples = 3\nvalue = [1, 2]\nclass = 1"] ;
233 -> 235 ;
236 [label="gini = 0.0\nsamples = 1\nvalue = [0, 1]\nclass = 1"] ;
235 -> 236 ;
237 [label="day_time <= 73203.074\ngini = 0.5\nsamples = 2\nvalue = [1, 1]\nclass = 0"] ;
235 -> 237 ;
238 [label="gini = 0.0\nsamples = 1\nvalue = [1, 0]\nclass = 0"] ;
237 -> 238 ;
239 [label="gini = 0.0\nsamples = 1\nvalue = [0, 1]\nclass = 1"] ;
237 -> 239 ;
240 [label="gini = 0.0\nsamples = 2\nvalue = [2, 0]\nclass = 0"] ;
232 -> 240 ;
241 [label="gini = 0.0\nsamples = 3\nvalue = [0, 3]\nclass = 1"] ;
229 -> 241 ;
242 [label="day_time <= 74107.934\ngini = 0.278\nsamples = 6\nvalue = [5, 1]\nclass = 0"] ;
222 -> 242 ;
243 [label="gini = 0.0\nsamples = 4\nvalue = [4, 0]\nclass = 0"] ;
242 -> 243 ;
244 [label="day_time <= 74161.551\ngini = 0.5\nsamples = 2\nvalue = [1, 1]\nclass = 0"] ;
242 -> 244 ;
245 [label="gini = 0.0\nsamples = 1\nvalue = [0, 1]\nclass = 1"] ;
244 -> 245 ;
246 [label="gini = 0.0\nsamples = 1\nvalue = [1, 0]\nclass = 0"] ;
244 -> 246 ;
247 [label="clouds <= 2.5\ngini = 0.183\nsamples = 323\nvalue = [33, 290]\nclass = 1"] ;
1 -> 247 ;
248 [label="day_time <= 87785.188\ngini = 0.111\nsamples = 238\nvalue = [14, 224]\nclass = 1"] ;
247 -> 248 ;
249 [label="day_time <= 75473.906\ngini = 0.025\nsamples = 155\nvalue = [2, 153]\nclass = 1"] ;
248 -> 249 ;
250 [label="day_time <= 75343.605\ngini = 0.278\nsamples = 12\nvalue = [2, 10]\nclass = 1"] ;
249 -> 250 ;
251 [label="clouds <= 1.5\ngini = 0.165\nsamples = 11\nvalue = [1, 10]\nclass = 1"] ;
250 -> 251 ;
252 [label="gini = 0.0\nsamples = 7\nvalue = [0, 7]\nclass = 1"] ;
251 -> 252 ;
253 [label="day_time <= 74757.086\ngini = 0.375\nsamples = 4\nvalue = [1, 3]\nclass = 1"] ;
251 -> 253 ;
254 [label="gini = 0.0\nsamples = 1\nvalue = [1, 0]\nclass = 0"] ;
253 -> 254 ;
255 [label="gini = 0.0\nsamples = 3\nvalue = [0, 3]\nclass = 1"] ;
253 -> 255 ;
256 [label="gini = 0.0\nsamples = 1\nvalue = [1, 0]\nclass = 0"] ;
250 -> 256 ;
257 [label="gini = 0.0\nsamples = 143\nvalue = [0, 143]\nclass = 1"] ;
249 -> 257 ;
258 [label="day_time <= 90500.715\ngini = 0.247\nsamples = 83\nvalue = [12, 71]\nclass = 1"] ;
248 -> 258 ;
259 [label="day_time <= 89494.418\ngini = 0.424\nsamples = 36\nvalue = [11, 25]\nclass = 1"] ;
258 -> 259 ;
260 [label="day_time <= 87909.312\ngini = 0.227\nsamples = 23\nvalue = [3, 20]\nclass = 1"] ;
259 -> 260 ;
261 [label="gini = 0.0\nsamples = 1\nvalue = [1, 0]\nclass = 0"] ;
260 -> 261 ;
262 [label="day_time <= 88717.793\ngini = 0.165\nsamples = 22\nvalue = [2, 20]\nclass = 1"] ;
260 -> 262 ;
263 [label="gini = 0.0\nsamples = 10\nvalue = [0, 10]\nclass = 1"] ;
262 -> 263 ;
264 [label="day_time <= 88811.078\ngini = 0.278\nsamples = 12\nvalue = [2, 10]\nclass = 1"] ;
262 -> 264 ;
265 [label="gini = 0.0\nsamples = 1\nvalue = [1, 0]\nclass = 0"] ;
264 -> 265 ;
266 [label="clouds <= 0.5\ngini = 0.165\nsamples = 11\nvalue = [1, 10]\nclass = 1"] ;
264 -> 266 ;
267 [label="day_time <= 89295.836\ngini = 0.375\nsamples = 4\nvalue = [1, 3]\nclass = 1"] ;
266 -> 267 ;
268 [label="gini = 0.0\nsamples = 3\nvalue = [0, 3]\nclass = 1"] ;
267 -> 268 ;
269 [label="gini = 0.0\nsamples = 1\nvalue = [1, 0]\nclass = 0"] ;
267 -> 269 ;
270 [label="gini = 0.0\nsamples = 7\nvalue = [0, 7]\nclass = 1"] ;
266 -> 270 ;
271 [label="day_time <= 89644.934\ngini = 0.473\nsamples = 13\nvalue = [8, 5]\nclass = 0"] ;
259 -> 271 ;
272 [label="gini = 0.0\nsamples = 3\nvalue = [3, 0]\nclass = 0"] ;
271 -> 272 ;
273 [label="day_time <= 89777.047\ngini = 0.5\nsamples = 10\nvalue = [5, 5]\nclass = 0"] ;
271 -> 273 ;
274 [label="gini = 0.0\nsamples = 3\nvalue = [0, 3]\nclass = 1"] ;
273 -> 274 ;
275 [label="day_time <= 90138.867\ngini = 0.408\nsamples = 7\nvalue = [5, 2]\nclass = 0"] ;
273 -> 275 ;
276 [label="gini = 0.0\nsamples = 3\nvalue = [3, 0]\nclass = 0"] ;
275 -> 276 ;
277 [label="clouds <= 0.5\ngini = 0.5\nsamples = 4\nvalue = [2, 2]\nclass = 0"] ;
275 -> 277 ;
278 [label="gini = 0.0\nsamples = 1\nvalue = [1, 0]\nclass = 0"] ;
277 -> 278 ;
279 [label="day_time <= 90246.594\ngini = 0.444\nsamples = 3\nvalue = [1, 2]\nclass = 1"] ;
277 -> 279 ;
280 [label="gini = 0.0\nsamples = 1\nvalue = [0, 1]\nclass = 1"] ;
279 -> 280 ;
281 [label="day_time <= 90344.676\ngini = 0.5\nsamples = 2\nvalue = [1, 1]\nclass = 0"] ;
279 -> 281 ;
282 [label="gini = 0.0\nsamples = 1\nvalue = [1, 0]\nclass = 0"] ;
281 -> 282 ;
283 [label="gini = 0.0\nsamples = 1\nvalue = [0, 1]\nclass = 1"] ;
281 -> 283 ;
284 [label="day_time <= 91272.348\ngini = 0.042\nsamples = 47\nvalue = [1, 46]\nclass = 1"] ;
258 -> 284 ;
285 [label="day_time <= 91087.242\ngini = 0.245\nsamples = 7\nvalue = [1, 6]\nclass = 1"] ;
284 -> 285 ;
286 [label="gini = 0.0\nsamples = 6\nvalue = [0, 6]\nclass = 1"] ;
285 -> 286 ;
287 [label="gini = 0.0\nsamples = 1\nvalue = [1, 0]\nclass = 0"] ;
285 -> 287 ;
288 [label="gini = 0.0\nsamples = 40\nvalue = [0, 40]\nclass = 1"] ;
284 -> 288 ;
289 [label="day_time <= 85027.125\ngini = 0.347\nsamples = 85\nvalue = [19, 66]\nclass = 1"] ;
247 -> 289 ;
290 [label="day_time <= 82569.523\ngini = 0.459\nsamples = 42\nvalue = [15, 27]\nclass = 1"] ;
289 -> 290 ;
291 [label="day_time <= 79793.559\ngini = 0.337\nsamples = 28\nvalue = [6, 22]\nclass = 1"] ;
290 -> 291 ;
292 [label="day_time <= 77202.586\ngini = 0.415\nsamples = 17\nvalue = [5, 12]\nclass = 1"] ;
291 -> 292 ;
293 [label="day_time <= 76505.672\ngini = 0.198\nsamples = 9\nvalue = [1, 8]\nclass = 1"] ;
292 -> 293 ;
294 [label="gini = 0.0\nsamples = 4\nvalue = [0, 4]\nclass = 1"] ;
293 -> 294 ;
295 [label="day_time <= 76742.539\ngini = 0.32\nsamples = 5\nvalue = [1, 4]\nclass = 1"] ;
293 -> 295 ;
296 [label="gini = 0.0\nsamples = 1\nvalue = [1, 0]\nclass = 0"] ;
295 -> 296 ;
297 [label="gini = 0.0\nsamples = 4\nvalue = [0, 4]\nclass = 1"] ;
295 -> 297 ;
298 [label="day_time <= 78038.754\ngini = 0.5\nsamples = 8\nvalue = [4, 4]\nclass = 0"] ;
292 -> 298 ;
299 [label="gini = 0.0\nsamples = 2\nvalue = [2, 0]\nclass = 0"] ;
298 -> 299 ;
300 [label="day_time <= 79637.086\ngini = 0.444\nsamples = 6\nvalue = [2, 4]\nclass = 1"] ;
298 -> 300 ;
301 [label="day_time <= 79189.133\ngini = 0.32\nsamples = 5\nvalue = [1, 4]\nclass = 1"] ;
300 -> 301 ;
302 [label="day_time <= 78629.117\ngini = 0.5\nsamples = 2\nvalue = [1, 1]\nclass = 0"] ;
301 -> 302 ;
303 [label="gini = 0.0\nsamples = 1\nvalue = [0, 1]\nclass = 1"] ;
302 -> 303 ;
304 [label="gini = 0.0\nsamples = 1\nvalue = [1, 0]\nclass = 0"] ;
302 -> 304 ;
305 [label="gini = 0.0\nsamples = 3\nvalue = [0, 3]\nclass = 1"] ;
301 -> 305 ;
306 [label="gini = 0.0\nsamples = 1\nvalue = [1, 0]\nclass = 0"] ;
300 -> 306 ;
307 [label="day_time <= 82378.152\ngini = 0.165\nsamples = 11\nvalue = [1, 10]\nclass = 1"] ;
291 -> 307 ;
308 [label="gini = 0.0\nsamples = 8\nvalue = [0, 8]\nclass = 1"] ;
307 -> 308 ;
309 [label="day_time <= 82393.742\ngini = 0.444\nsamples = 3\nvalue = [1, 2]\nclass = 1"] ;
307 -> 309 ;
310 [label="gini = 0.0\nsamples = 1\nvalue = [1, 0]\nclass = 0"] ;
309 -> 310 ;
311 [label="gini = 0.0\nsamples = 2\nvalue = [0, 2]\nclass = 1"] ;
309 -> 311 ;
312 [label="day_time <= 84133.152\ngini = 0.459\nsamples = 14\nvalue = [9, 5]\nclass = 0"] ;
290 -> 312 ;
313 [label="day_time <= 82821.527\ngini = 0.219\nsamples = 8\nvalue = [7, 1]\nclass = 0"] ;
312 -> 313 ;
314 [label="day_time <= 82622.469\ngini = 0.5\nsamples = 2\nvalue = [1, 1]\nclass = 0"] ;
313 -> 314 ;
315 [label="gini = 0.0\nsamples = 1\nvalue = [1, 0]\nclass = 0"] ;
314 -> 315 ;
316 [label="gini = 0.0\nsamples = 1\nvalue = [0, 1]\nclass = 1"] ;
314 -> 316 ;
317 [label="gini = 0.0\nsamples = 6\nvalue = [6, 0]\nclass = 0"] ;
313 -> 317 ;
318 [label="day_time <= 84408.906\ngini = 0.444\nsamples = 6\nvalue = [2, 4]\nclass = 1"] ;
312 -> 318 ;
319 [label="gini = 0.0\nsamples = 4\nvalue = [0, 4]\nclass = 1"] ;
318 -> 319 ;
320 [label="gini = 0.0\nsamples = 2\nvalue = [2, 0]\nclass = 0"] ;
318 -> 320 ;
321 [label="day_time <= 89258.805\ngini = 0.169\nsamples = 43\nvalue = [4, 39]\nclass = 1"] ;
289 -> 321 ;
322 [label="day_time <= 88938.91\ngini = 0.278\nsamples = 18\nvalue = [3, 15]\nclass = 1"] ;
321 -> 322 ;
323 [label="day_time <= 88237.578\ngini = 0.208\nsamples = 17\nvalue = [2, 15]\nclass = 1"] ;
322 -> 323 ;
324 [label="day_time <= 88153.496\ngini = 0.298\nsamples = 11\nvalue = [2, 9]\nclass = 1"] ;
323 -> 324 ;
325 [label="day_time <= 86719.309\ngini = 0.18\nsamples = 10\nvalue = [1, 9]\nclass = 1"] ;
324 -> 325 ;
326 [label="gini = 0.0\nsamples = 5\nvalue = [0, 5]\nclass = 1"] ;
325 -> 326 ;
327 [label="day_time <= 86819.781\ngini = 0.32\nsamples = 5\nvalue = [1, 4]\nclass = 1"] ;
325 -> 327 ;
328 [label="gini = 0.0\nsamples = 1\nvalue = [1, 0]\nclass = 0"] ;
327 -> 328 ;
329 [label="gini = 0.0\nsamples = 4\nvalue = [0, 4]\nclass = 1"] ;
327 -> 329 ;
330 [label="gini = 0.0\nsamples = 1\nvalue = [1, 0]\nclass = 0"] ;
324 -> 330 ;
331 [label="gini = 0.0\nsamples = 6\nvalue = [0, 6]\nclass = 1"] ;
323 -> 331 ;
332 [label="gini = 0.0\nsamples = 1\nvalue = [1, 0]\nclass = 0"] ;
322 -> 332 ;
333 [label="day_time <= 93708.684\ngini = 0.077\nsamples = 25\nvalue = [1, 24]\nclass = 1"] ;
321 -> 333 ;
334 [label="gini = 0.0\nsamples = 21\nvalue = [0, 21]\nclass = 1"] ;
333 -> 334 ;
335 [label="day_time <= 93987.043\ngini = 0.375\nsamples = 4\nvalue = [1, 3]\nclass = 1"] ;
333 -> 335 ;
336 [label="gini = 0.0\nsamples = 1\nvalue = [1, 0]\nclass = 0"] ;
335 -> 336 ;
337 [label="gini = 0.0\nsamples = 3\nvalue = [0, 3]\nclass = 1"] ;
335 -> 337 ;
338 [label="day_time <= 71349.711\ngini = 0.468\nsamples = 321\nvalue = [120, 201]\nclass = 1"] ;
0 -> 338 [labeldistance=2.5, labelangle=-45, headlabel="False"] ;
339 [label="day_time <= 52172.621\ngini = 0.408\nsamples = 168\nvalue = [48, 120]\nclass = 1"] ;
338 -> 339 ;
340 [label="gini = 0.0\nsamples = 14\nvalue = [0, 14]\nclass = 1"] ;
339 -> 340 ;
341 [label="day_time <= 52761.039\ngini = 0.429\nsamples = 154\nvalue = [48, 106]\nclass = 1"] ;
339 -> 341 ;
342 [label="gini = 0.0\nsamples = 2\nvalue = [2, 0]\nclass = 0"] ;
341 -> 342 ;
343 [label="day_time <= 54286.758\ngini = 0.422\nsamples = 152\nvalue = [46, 106]\nclass = 1"] ;
341 -> 343 ;
344 [label="gini = 0.0\nsamples = 7\nvalue = [0, 7]\nclass = 1"] ;
343 -> 344 ;
345 [label="day_time <= 70325.168\ngini = 0.433\nsamples = 145\nvalue = [46, 99]\nclass = 1"] ;
343 -> 345 ;
346 [label="day_time <= 54296.152\ngini = 0.448\nsamples = 133\nvalue = [45, 88]\nclass = 1"] ;
345 -> 346 ;
347 [label="gini = 0.0\nsamples = 1\nvalue = [1, 0]\nclass = 0"] ;
346 -> 347 ;
348 [label="day_time <= 55605.803\ngini = 0.444\nsamples = 132\nvalue = [44, 88]\nclass = 1"] ;
346 -> 348 ;
349 [label="clouds <= 4.5\ngini = 0.198\nsamples = 9\nvalue = [1, 8]\nclass = 1"] ;
348 -> 349 ;
350 [label="gini = 0.0\nsamples = 5\nvalue = [0, 5]\nclass = 1"] ;
349 -> 350 ;
351 [label="day_time <= 54579.688\ngini = 0.375\nsamples = 4\nvalue = [1, 3]\nclass = 1"] ;
349 -> 351 ;
352 [label="day_time <= 54451.957\ngini = 0.5\nsamples = 2\nvalue = [1, 1]\nclass = 0"] ;
351 -> 352 ;
353 [label="gini = 0.0\nsamples = 1\nvalue = [0, 1]\nclass = 1"] ;
352 -> 353 ;
354 [label="gini = 0.0\nsamples = 1\nvalue = [1, 0]\nclass = 0"] ;
352 -> 354 ;
355 [label="gini = 0.0\nsamples = 2\nvalue = [0, 2]\nclass = 1"] ;
351 -> 355 ;
356 [label="day_time <= 56860.891\ngini = 0.455\nsamples = 123\nvalue = [43, 80]\nclass = 1"] ;
348 -> 356 ;
357 [label="day_time <= 56273.635\ngini = 0.444\nsamples = 9\nvalue = [6, 3]\nclass = 0"] ;
356 -> 357 ;
358 [label="gini = 0.0\nsamples = 2\nvalue = [2, 0]\nclass = 0"] ;
357 -> 358 ;
359 [label="day_time <= 56395.232\ngini = 0.49\nsamples = 7\nvalue = [4, 3]\nclass = 0"] ;
357 -> 359 ;
360 [label="gini = 0.0\nsamples = 2\nvalue = [0, 2]\nclass = 1"] ;
359 -> 360 ;
361 [label="clouds <= 4.5\ngini = 0.32\nsamples = 5\nvalue = [4, 1]\nclass = 0"] ;
359 -> 361 ;
362 [label="gini = 0.0\nsamples = 3\nvalue = [3, 0]\nclass = 0"] ;
361 -> 362 ;
363 [label="day_time <= 56669.707\ngini = 0.5\nsamples = 2\nvalue = [1, 1]\nclass = 0"] ;
361 -> 363 ;
364 [label="gini = 0.0\nsamples = 1\nvalue = [0, 1]\nclass = 1"] ;
363 -> 364 ;
365 [label="gini = 0.0\nsamples = 1\nvalue = [1, 0]\nclass = 0"] ;
363 -> 365 ;
366 [label="day_time <= 57222.91\ngini = 0.438\nsamples = 114\nvalue = [37, 77]\nclass = 1"] ;
356 -> 366 ;
367 [label="gini = 0.0\nsamples = 5\nvalue = [0, 5]\nclass = 1"] ;
366 -> 367 ;
368 [label="day_time <= 57314.518\ngini = 0.448\nsamples = 109\nvalue = [37, 72]\nclass = 1"] ;
366 -> 368 ;
369 [label="gini = 0.0\nsamples = 1\nvalue = [1, 0]\nclass = 0"] ;
368 -> 369 ;
370 [label="day_time <= 70292.457\ngini = 0.444\nsamples = 108\nvalue = [36, 72]\nclass = 1"] ;
368 -> 370 ;
371 [label="day_time <= 69990.48\ngini = 0.44\nsamples = 107\nvalue = [35, 72]\nclass = 1"] ;
370 -> 371 ;
372 [label="day_time <= 69583.539\ngini = 0.447\nsamples = 104\nvalue = [35, 69]\nclass = 1"] ;
371 -> 372 ;
373 [label="day_time <= 69110.238\ngini = 0.438\nsamples = 102\nvalue = [33, 69]\nclass = 1"] ;
372 -> 373 ;
374 [label="day_time <= 68470.793\ngini = 0.447\nsamples = 95\nvalue = [32, 63]\nclass = 1"] ;
373 -> 374 ;
375 [label="day_time <= 68077.531\ngini = 0.428\nsamples = 87\nvalue = [27, 60]\nclass = 1"] ;
374 -> 375 ;
376 [label="day_time <= 68052.91\ngini = 0.436\nsamples = 84\nvalue = [27, 57]\nclass = 1"] ;
375 -> 376 ;
377 [label="day_time <= 67733.246\ngini = 0.43\nsamples = 83\nvalue = [26, 57]\nclass = 1"] ;
376 -> 377 ;
378 [label="day_time <= 67453.906\ngini = 0.439\nsamples = 80\nvalue = [26, 54]\nclass = 1"] ;
377 -> 378 ;
379 [label="day_time <= 66429.305\ngini = 0.422\nsamples = 76\nvalue = [23, 53]\nclass = 1"] ;
378 -> 379 ;
380 [label="day_time <= 66113.809\ngini = 0.444\nsamples = 69\nvalue = [23, 46]\nclass = 1"] ;
379 -> 380 ;
381 [label="day_time <= 64868.004\ngini = 0.426\nsamples = 65\nvalue = [20, 45]\nclass = 1"] ;
380 -> 381 ;
382 [label="day_time <= 64811.971\ngini = 0.444\nsamples = 57\nvalue = [19, 38]\nclass = 1"] ;
381 -> 382 ;
383 [label="day_time <= 57474.941\ngini = 0.436\nsamples = 56\nvalue = [18, 38]\nclass = 1"] ;
382 -> 383 ;
384 [label="gini = 0.0\nsamples = 2\nvalue = [0, 2]\nclass = 1"] ;
383 -> 384 ;
385 [label="day_time <= 57757.807\ngini = 0.444\nsamples = 54\nvalue = [18, 36]\nclass = 1"] ;
383 -> 385 ;
386 [label="gini = 0.0\nsamples = 2\nvalue = [2, 0]\nclass = 0"] ;
385 -> 386 ;
387 [label="day_time <= 59030.145\ngini = 0.426\nsamples = 52\nvalue = [16, 36]\nclass = 1"] ;
385 -> 387 ;
388 [label="day_time <= 58334.648\ngini = 0.198\nsamples = 9\nvalue = [1, 8]\nclass = 1"] ;
387 -> 388 ;
389 [label="gini = 0.0\nsamples = 4\nvalue = [0, 4]\nclass = 1"] ;
388 -> 389 ;
390 [label="day_time <= 58465.598\ngini = 0.32\nsamples = 5\nvalue = [1, 4]\nclass = 1"] ;
388 -> 390 ;
391 [label="gini = 0.0\nsamples = 1\nvalue = [1, 0]\nclass = 0"] ;
390 -> 391 ;
392 [label="gini = 0.0\nsamples = 4\nvalue = [0, 4]\nclass = 1"] ;
390 -> 392 ;
393 [label="day_time <= 59229.242\ngini = 0.454\nsamples = 43\nvalue = [15, 28]\nclass = 1"] ;
387 -> 393 ;
394 [label="gini = 0.0\nsamples = 3\nvalue = [3, 0]\nclass = 0"] ;
393 -> 394 ;
395 [label="day_time <= 59381.301\ngini = 0.42\nsamples = 40\nvalue = [12, 28]\nclass = 1"] ;
393 -> 395 ;
396 [label="gini = 0.0\nsamples = 3\nvalue = [0, 3]\nclass = 1"] ;
395 -> 396 ;
397 [label="day_time <= 59956.441\ngini = 0.438\nsamples = 37\nvalue = [12, 25]\nclass = 1"] ;
395 -> 397 ;
398 [label="day_time <= 59577.246\ngini = 0.375\nsamples = 4\nvalue = [3, 1]\nclass = 0"] ;
397 -> 398 ;
399 [label="day_time <= 59470.15\ngini = 0.5\nsamples = 2\nvalue = [1, 1]\nclass = 0"] ;
398 -> 399 ;
400 [label="gini = 0.0\nsamples = 1\nvalue = [1, 0]\nclass = 0"] ;
399 -> 400 ;
401 [label="gini = 0.0\nsamples = 1\nvalue = [0, 1]\nclass = 1"] ;
399 -> 401 ;
402 [label="gini = 0.0\nsamples = 2\nvalue = [2, 0]\nclass = 0"] ;
398 -> 402 ;
403 [label="day_time <= 63300.777\ngini = 0.397\nsamples = 33\nvalue = [9, 24]\nclass = 1"] ;
397 -> 403 ;
404 [label="day_time <= 62029.297\ngini = 0.32\nsamples = 20\nvalue = [4, 16]\nclass = 1"] ;
403 -> 404 ;
405 [label="day_time <= 61487.561\ngini = 0.391\nsamples = 15\nvalue = [4, 11]\nclass = 1"] ;
404 -> 405 ;
406 [label="day_time <= 60425.635\ngini = 0.337\nsamples = 14\nvalue = [3, 11]\nclass = 1"] ;
405 -> 406 ;
407 [label="gini = 0.0\nsamples = 3\nvalue = [0, 3]\nclass = 1"] ;
406 -> 407 ;
408 [label="day_time <= 60524.9\ngini = 0.397\nsamples = 11\nvalue = [3, 8]\nclass = 1"] ;
406 -> 408 ;
409 [label="gini = 0.0\nsamples = 1\nvalue = [1, 0]\nclass = 0"] ;
408 -> 409 ;
410 [label="day_time <= 60726.121\ngini = 0.32\nsamples = 10\nvalue = [2, 8]\nclass = 1"] ;
408 -> 410 ;
411 [label="gini = 0.0\nsamples = 4\nvalue = [0, 4]\nclass = 1"] ;
410 -> 411 ;
412 [label="day_time <= 60783.49\ngini = 0.444\nsamples = 6\nvalue = [2, 4]\nclass = 1"] ;
410 -> 412 ;
413 [label="gini = 0.0\nsamples = 1\nvalue = [1, 0]\nclass = 0"] ;
412 -> 413 ;
414 [label="clouds <= 4.5\ngini = 0.32\nsamples = 5\nvalue = [1, 4]\nclass = 1"] ;
412 -> 414 ;
415 [label="gini = 0.0\nsamples = 2\nvalue = [0, 2]\nclass = 1"] ;
414 -> 415 ;
416 [label="day_time <= 61021.557\ngini = 0.444\nsamples = 3\nvalue = [1, 2]\nclass = 1"] ;
414 -> 416 ;
417 [label="gini = 0.0\nsamples = 1\nvalue = [0, 1]\nclass = 1"] ;
416 -> 417 ;
418 [label="day_time <= 61262.242\ngini = 0.5\nsamples = 2\nvalue = [1, 1]\nclass = 0"] ;
416 -> 418 ;
419 [label="gini = 0.0\nsamples = 1\nvalue = [1, 0]\nclass = 0"] ;
418 -> 419 ;
420 [label="gini = 0.0\nsamples = 1\nvalue = [0, 1]\nclass = 1"] ;
418 -> 420 ;
421 [label="gini = 0.0\nsamples = 1\nvalue = [1, 0]\nclass = 0"] ;
405 -> 421 ;
422 [label="gini = 0.0\nsamples = 5\nvalue = [0, 5]\nclass = 1"] ;
404 -> 422 ;
423 [label="day_time <= 63576.752\ngini = 0.473\nsamples = 13\nvalue = [5, 8]\nclass = 1"] ;
403 -> 423 ;
424 [label="gini = 0.0\nsamples = 2\nvalue = [2, 0]\nclass = 0"] ;
423 -> 424 ;
425 [label="clouds <= 4.5\ngini = 0.397\nsamples = 11\nvalue = [3, 8]\nclass = 1"] ;
423 -> 425 ;
426 [label="gini = 0.0\nsamples = 5\nvalue = [0, 5]\nclass = 1"] ;
425 -> 426 ;
427 [label="day_time <= 63826.926\ngini = 0.5\nsamples = 6\nvalue = [3, 3]\nclass = 0"] ;
425 -> 427 ;
428 [label="gini = 0.0\nsamples = 1\nvalue = [0, 1]\nclass = 1"] ;
427 -> 428 ;
429 [label="day_time <= 64043.68\ngini = 0.48\nsamples = 5\nvalue = [3, 2]\nclass = 0"] ;
427 -> 429 ;
430 [label="gini = 0.0\nsamples = 1\nvalue = [1, 0]\nclass = 0"] ;
429 -> 430 ;
431 [label="day_time <= 64256.289\ngini = 0.5\nsamples = 4\nvalue = [2, 2]\nclass = 0"] ;
429 -> 431 ;
432 [label="gini = 0.0\nsamples = 1\nvalue = [0, 1]\nclass = 1"] ;
431 -> 432 ;
433 [label="day_time <= 64286.193\ngini = 0.444\nsamples = 3\nvalue = [2, 1]\nclass = 0"] ;
431 -> 433 ;
434 [label="gini = 0.0\nsamples = 1\nvalue = [1, 0]\nclass = 0"] ;
433 -> 434 ;
435 [label="day_time <= 64496.0\ngini = 0.5\nsamples = 2\nvalue = [1, 1]\nclass = 0"] ;
433 -> 435 ;
436 [label="gini = 0.0\nsamples = 1\nvalue = [0, 1]\nclass = 1"] ;
435 -> 436 ;
437 [label="gini = 0.0\nsamples = 1\nvalue = [1, 0]\nclass = 0"] ;
435 -> 437 ;
438 [label="gini = 0.0\nsamples = 1\nvalue = [1, 0]\nclass = 0"] ;
382 -> 438 ;
439 [label="clouds <= 4.5\ngini = 0.219\nsamples = 8\nvalue = [1, 7]\nclass = 1"] ;
381 -> 439 ;
440 [label="day_time <= 65738.625\ngini = 0.5\nsamples = 2\nvalue = [1, 1]\nclass = 0"] ;
439 -> 440 ;
441 [label="gini = 0.0\nsamples = 1\nvalue = [0, 1]\nclass = 1"] ;
440 -> 441 ;
442 [label="gini = 0.0\nsamples = 1\nvalue = [1, 0]\nclass = 0"] ;
440 -> 442 ;
443 [label="gini = 0.0\nsamples = 6\nvalue = [0, 6]\nclass = 1"] ;
439 -> 443 ;
444 [label="day_time <= 66228.309\ngini = 0.375\nsamples = 4\nvalue = [3, 1]\nclass = 0"] ;
380 -> 444 ;
445 [label="gini = 0.0\nsamples = 2\nvalue = [2, 0]\nclass = 0"] ;
444 -> 445 ;
446 [label="day_time <= 66255.633\ngini = 0.5\nsamples = 2\nvalue = [1, 1]\nclass = 0"] ;
444 -> 446 ;
447 [label="gini = 0.0\nsamples = 1\nvalue = [0, 1]\nclass = 1"] ;
446 -> 447 ;
448 [label="gini = 0.0\nsamples = 1\nvalue = [1, 0]\nclass = 0"] ;
446 -> 448 ;
449 [label="gini = 0.0\nsamples = 7\nvalue = [0, 7]\nclass = 1"] ;
379 -> 449 ;
450 [label="day_time <= 67627.52\ngini = 0.375\nsamples = 4\nvalue = [3, 1]\nclass = 0"] ;
378 -> 450 ;
451 [label="gini = 0.0\nsamples = 2\nvalue = [2, 0]\nclass = 0"] ;
450 -> 451 ;
452 [label="day_time <= 67664.238\ngini = 0.5\nsamples = 2\nvalue = [1, 1]\nclass = 0"] ;
450 -> 452 ;
453 [label="gini = 0.0\nsamples = 1\nvalue = [0, 1]\nclass = 1"] ;
452 -> 453 ;
454 [label="gini = 0.0\nsamples = 1\nvalue = [1, 0]\nclass = 0"] ;
452 -> 454 ;
455 [label="gini = 0.0\nsamples = 3\nvalue = [0, 3]\nclass = 1"] ;
377 -> 455 ;
456 [label="gini = 0.0\nsamples = 1\nvalue = [1, 0]\nclass = 0"] ;
376 -> 456 ;
457 [label="gini = 0.0\nsamples = 3\nvalue = [0, 3]\nclass = 1"] ;
375 -> 457 ;
458 [label="day_time <= 68763.551\ngini = 0.469\nsamples = 8\nvalue = [5, 3]\nclass = 0"] ;
374 -> 458 ;
459 [label="gini = 0.0\nsamples = 2\nvalue = [2, 0]\nclass = 0"] ;
458 -> 459 ;
460 [label="day_time <= 68873.578\ngini = 0.5\nsamples = 6\nvalue = [3, 3]\nclass = 0"] ;
458 -> 460 ;
461 [label="gini = 0.0\nsamples = 1\nvalue = [0, 1]\nclass = 1"] ;
460 -> 461 ;
462 [label="day_time <= 68984.398\ngini = 0.48\nsamples = 5\nvalue = [3, 2]\nclass = 0"] ;
460 -> 462 ;
463 [label="gini = 0.0\nsamples = 1\nvalue = [1, 0]\nclass = 0"] ;
462 -> 463 ;
464 [label="day_time <= 69010.078\ngini = 0.5\nsamples = 4\nvalue = [2, 2]\nclass = 0"] ;
462 -> 464 ;
465 [label="gini = 0.0\nsamples = 1\nvalue = [0, 1]\nclass = 1"] ;
464 -> 465 ;
466 [label="day_time <= 69049.469\ngini = 0.444\nsamples = 3\nvalue = [2, 1]\nclass = 0"] ;
464 -> 466 ;
467 [label="gini = 0.0\nsamples = 1\nvalue = [1, 0]\nclass = 0"] ;
466 -> 467 ;
468 [label="day_time <= 69074.941\ngini = 0.5\nsamples = 2\nvalue = [1, 1]\nclass = 0"] ;
466 -> 468 ;
469 [label="gini = 0.0\nsamples = 1\nvalue = [0, 1]\nclass = 1"] ;
468 -> 469 ;
470 [label="gini = 0.0\nsamples = 1\nvalue = [1, 0]\nclass = 0"] ;
468 -> 470 ;
471 [label="day_time <= 69377.879\ngini = 0.245\nsamples = 7\nvalue = [1, 6]\nclass = 1"] ;
373 -> 471 ;
472 [label="gini = 0.0\nsamples = 4\nvalue = [0, 4]\nclass = 1"] ;
471 -> 472 ;
473 [label="day_time <= 69438.043\ngini = 0.444\nsamples = 3\nvalue = [1, 2]\nclass = 1"] ;
471 -> 473 ;
474 [label="gini = 0.0\nsamples = 1\nvalue = [1, 0]\nclass = 0"] ;
473 -> 474 ;
475 [label="gini = 0.0\nsamples = 2\nvalue = [0, 2]\nclass = 1"] ;
473 -> 475 ;
476 [label="gini = 0.0\nsamples = 2\nvalue = [2, 0]\nclass = 0"] ;
372 -> 476 ;
477 [label="gini = 0.0\nsamples = 3\nvalue = [0, 3]\nclass = 1"] ;
371 -> 477 ;
478 [label="gini = 0.0\nsamples = 1\nvalue = [1, 0]\nclass = 0"] ;
370 -> 478 ;
479 [label="day_time <= 70757.98\ngini = 0.153\nsamples = 12\nvalue = [1, 11]\nclass = 1"] ;
345 -> 479 ;
480 [label="gini = 0.0\nsamples = 7\nvalue = [0, 7]\nclass = 1"] ;
479 -> 480 ;
481 [label="day_time <= 70936.914\ngini = 0.32\nsamples = 5\nvalue = [1, 4]\nclass = 1"] ;
479 -> 481 ;
482 [label="gini = 0.0\nsamples = 1\nvalue = [1, 0]\nclass = 0"] ;
481 -> 482 ;
483 [label="gini = 0.0\nsamples = 4\nvalue = [0, 4]\nclass = 1"] ;
481 -> 483 ;
484 [label="day_time <= 81189.215\ngini = 0.498\nsamples = 153\nvalue = [72, 81]\nclass = 1"] ;
338 -> 484 ;
485 [label="day_time <= 79173.273\ngini = 0.496\nsamples = 68\nvalue = [37, 31]\nclass = 0"] ;
484 -> 485 ;
486 [label="day_time <= 71508.273\ngini = 0.5\nsamples = 55\nvalue = [27, 28]\nclass = 1"] ;
485 -> 486 ;
487 [label="gini = 0.0\nsamples = 2\nvalue = [2, 0]\nclass = 0"] ;
486 -> 487 ;
488 [label="day_time <= 71667.684\ngini = 0.498\nsamples = 53\nvalue = [25, 28]\nclass = 1"] ;
486 -> 488 ;
489 [label="gini = 0.0\nsamples = 2\nvalue = [0, 2]\nclass = 1"] ;
488 -> 489 ;
490 [label="day_time <= 72133.238\ngini = 0.5\nsamples = 51\nvalue = [25, 26]\nclass = 1"] ;
488 -> 490 ;
491 [label="day_time <= 71834.312\ngini = 0.32\nsamples = 5\nvalue = [4, 1]\nclass = 0"] ;
490 -> 491 ;
492 [label="day_time <= 71769.871\ngini = 0.5\nsamples = 2\nvalue = [1, 1]\nclass = 0"] ;
491 -> 492 ;
493 [label="gini = 0.0\nsamples = 1\nvalue = [1, 0]\nclass = 0"] ;
492 -> 493 ;
494 [label="gini = 0.0\nsamples = 1\nvalue = [0, 1]\nclass = 1"] ;
492 -> 494 ;
495 [label="gini = 0.0\nsamples = 3\nvalue = [3, 0]\nclass = 0"] ;
491 -> 495 ;
496 [label="day_time <= 72319.148\ngini = 0.496\nsamples = 46\nvalue = [21, 25]\nclass = 1"] ;
490 -> 496 ;
497 [label="gini = 0.0\nsamples = 2\nvalue = [0, 2]\nclass = 1"] ;
496 -> 497 ;
498 [label="day_time <= 78865.801\ngini = 0.499\nsamples = 44\nvalue = [21, 23]\nclass = 1"] ;
496 -> 498 ;
499 [label="day_time <= 73189.98\ngini = 0.5\nsamples = 42\nvalue = [21, 21]\nclass = 0"] ;
498 -> 499 ;
500 [label="day_time <= 72632.945\ngini = 0.444\nsamples = 9\nvalue = [6, 3]\nclass = 0"] ;
499 -> 500 ;
501 [label="day_time <= 72549.594\ngini = 0.48\nsamples = 5\nvalue = [2, 3]\nclass = 1"] ;
500 -> 501 ;
502 [label="clouds <= 4.5\ngini = 0.444\nsamples = 3\nvalue = [2, 1]\nclass = 0"] ;
501 -> 502 ;
503 [label="day_time <= 72533.75\ngini = 0.5\nsamples = 2\nvalue = [1, 1]\nclass = 0"] ;
502 -> 503 ;
504 [label="gini = 0.0\nsamples = 1\nvalue = [0, 1]\nclass = 1"] ;
503 -> 504 ;
505 [label="gini = 0.0\nsamples = 1\nvalue = [1, 0]\nclass = 0"] ;
503 -> 505 ;
506 [label="gini = 0.0\nsamples = 1\nvalue = [1, 0]\nclass = 0"] ;
502 -> 506 ;
507 [label="gini = 0.0\nsamples = 2\nvalue = [0, 2]\nclass = 1"] ;
501 -> 507 ;
508 [label="gini = 0.0\nsamples = 4\nvalue = [4, 0]\nclass = 0"] ;
500 -> 508 ;
509 [label="day_time <= 73730.055\ngini = 0.496\nsamples = 33\nvalue = [15, 18]\nclass = 1"] ;
499 -> 509 ;
510 [label="gini = 0.0\nsamples = 2\nvalue = [0, 2]\nclass = 1"] ;
509 -> 510 ;
511 [label="day_time <= 74061.602\ngini = 0.499\nsamples = 31\nvalue = [15, 16]\nclass = 1"] ;
509 -> 511 ;
512 [label="gini = 0.0\nsamples = 1\nvalue = [1, 0]\nclass = 0"] ;
511 -> 512 ;
513 [label="day_time <= 74293.781\ngini = 0.498\nsamples = 30\nvalue = [14, 16]\nclass = 1"] ;
511 -> 513 ;
514 [label="gini = 0.0\nsamples = 2\nvalue = [0, 2]\nclass = 1"] ;
513 -> 514 ;
515 [label="day_time <= 74387.859\ngini = 0.5\nsamples = 28\nvalue = [14, 14]\nclass = 0"] ;
513 -> 515 ;
516 [label="gini = 0.0\nsamples = 1\nvalue = [1, 0]\nclass = 0"] ;
515 -> 516 ;
517 [label="day_time <= 78807.605\ngini = 0.499\nsamples = 27\nvalue = [13, 14]\nclass = 1"] ;
515 -> 517 ;
518 [label="day_time <= 74484.773\ngini = 0.497\nsamples = 26\nvalue = [12, 14]\nclass = 1"] ;
517 -> 518 ;
519 [label="gini = 0.0\nsamples = 1\nvalue = [0, 1]\nclass = 1"] ;
518 -> 519 ;
520 [label="day_time <= 74616.422\ngini = 0.499\nsamples = 25\nvalue = [12, 13]\nclass = 1"] ;
518 -> 520 ;
521 [label="gini = 0.0\nsamples = 1\nvalue = [1, 0]\nclass = 0"] ;
520 -> 521 ;
522 [label="day_time <= 74753.66\ngini = 0.497\nsamples = 24\nvalue = [11, 13]\nclass = 1"] ;
520 -> 522 ;
523 [label="gini = 0.0\nsamples = 1\nvalue = [0, 1]\nclass = 1"] ;
522 -> 523 ;
524 [label="day_time <= 75243.438\ngini = 0.499\nsamples = 23\nvalue = [11, 12]\nclass = 1"] ;
522 -> 524 ;
525 [label="day_time <= 75105.559\ngini = 0.444\nsamples = 6\nvalue = [4, 2]\nclass = 0"] ;
524 -> 525 ;
526 [label="clouds <= 4.5\ngini = 0.5\nsamples = 4\nvalue = [2, 2]\nclass = 0"] ;
525 -> 526 ;
527 [label="day_time <= 74821.012\ngini = 0.444\nsamples = 3\nvalue = [2, 1]\nclass = 0"] ;
526 -> 527 ;
528 [label="gini = 0.0\nsamples = 1\nvalue = [1, 0]\nclass = 0"] ;
527 -> 528 ;
529 [label="day_time <= 74899.094\ngini = 0.5\nsamples = 2\nvalue = [1, 1]\nclass = 0"] ;
527 -> 529 ;
530 [label="gini = 0.0\nsamples = 1\nvalue = [0, 1]\nclass = 1"] ;
529 -> 530 ;
531 [label="gini = 0.0\nsamples = 1\nvalue = [1, 0]\nclass = 0"] ;
529 -> 531 ;
532 [label="gini = 0.0\nsamples = 1\nvalue = [0, 1]\nclass = 1"] ;
526 -> 532 ;
533 [label="gini = 0.0\nsamples = 2\nvalue = [2, 0]\nclass = 0"] ;
525 -> 533 ;
534 [label="clouds <= 4.5\ngini = 0.484\nsamples = 17\nvalue = [7, 10]\nclass = 1"] ;
524 -> 534 ;
535 [label="day_time <= 75669.23\ngini = 0.444\nsamples = 12\nvalue = [4, 8]\nclass = 1"] ;
534 -> 535 ;
536 [label="gini = 0.0\nsamples = 3\nvalue = [0, 3]\nclass = 1"] ;
535 -> 536 ;
537 [label="day_time <= 76442.535\ngini = 0.494\nsamples = 9\nvalue = [4, 5]\nclass = 1"] ;
535 -> 537 ;
538 [label="gini = 0.0\nsamples = 2\nvalue = [2, 0]\nclass = 0"] ;
537 -> 538 ;
539 [label="day_time <= 77240.004\ngini = 0.408\nsamples = 7\nvalue = [2, 5]\nclass = 1"] ;
537 -> 539 ;
540 [label="gini = 0.0\nsamples = 3\nvalue = [0, 3]\nclass = 1"] ;
539 -> 540 ;
541 [label="day_time <= 77515.141\ngini = 0.5\nsamples = 4\nvalue = [2, 2]\nclass = 0"] ;
539 -> 541 ;
542 [label="gini = 0.0\nsamples = 1\nvalue = [1, 0]\nclass = 0"] ;
541 -> 542 ;
543 [label="day_time <= 78028.031\ngini = 0.444\nsamples = 3\nvalue = [1, 2]\nclass = 1"] ;
541 -> 543 ;
544 [label="gini = 0.0\nsamples = 1\nvalue = [0, 1]\nclass = 1"] ;
543 -> 544 ;
545 [label="day_time <= 78487.324\ngini = 0.5\nsamples = 2\nvalue = [1, 1]\nclass = 0"] ;
543 -> 545 ;
546 [label="gini = 0.0\nsamples = 1\nvalue = [1, 0]\nclass = 0"] ;
545 -> 546 ;
547 [label="gini = 0.0\nsamples = 1\nvalue = [0, 1]\nclass = 1"] ;
545 -> 547 ;
548 [label="day_time <= 77409.109\ngini = 0.48\nsamples = 5\nvalue = [3, 2]\nclass = 0"] ;
534 -> 548 ;
549 [label="gini = 0.0\nsamples = 2\nvalue = [2, 0]\nclass = 0"] ;
548 -> 549 ;
550 [label="day_time <= 78290.586\ngini = 0.444\nsamples = 3\nvalue = [1, 2]\nclass = 1"] ;
548 -> 550 ;
551 [label="gini = 0.0\nsamples = 1\nvalue = [0, 1]\nclass = 1"] ;
550 -> 551 ;
552 [label="day_time <= 78749.805\ngini = 0.5\nsamples = 2\nvalue = [1, 1]\nclass = 0"] ;
550 -> 552 ;
553 [label="gini = 0.0\nsamples = 1\nvalue = [1, 0]\nclass = 0"] ;
552 -> 553 ;
554 [label="gini = 0.0\nsamples = 1\nvalue = [0, 1]\nclass = 1"] ;
552 -> 554 ;
555 [label="gini = 0.0\nsamples = 1\nvalue = [1, 0]\nclass = 0"] ;
517 -> 555 ;
556 [label="gini = 0.0\nsamples = 2\nvalue = [0, 2]\nclass = 1"] ;
498 -> 556 ;
557 [label="day_time <= 80269.555\ngini = 0.355\nsamples = 13\nvalue = [10, 3]\nclass = 0"] ;
485 -> 557 ;
558 [label="day_time <= 79619.871\ngini = 0.198\nsamples = 9\nvalue = [8, 1]\nclass = 0"] ;
557 -> 558 ;
559 [label="day_time <= 79552.844\ngini = 0.375\nsamples = 4\nvalue = [3, 1]\nclass = 0"] ;
558 -> 559 ;
560 [label="gini = 0.0\nsamples = 3\nvalue = [3, 0]\nclass = 0"] ;
559 -> 560 ;
561 [label="gini = 0.0\nsamples = 1\nvalue = [0, 1]\nclass = 1"] ;
559 -> 561 ;
562 [label="gini = 0.0\nsamples = 5\nvalue = [5, 0]\nclass = 0"] ;
558 -> 562 ;
563 [label="day_time <= 80555.898\ngini = 0.5\nsamples = 4\nvalue = [2, 2]\nclass = 0"] ;
557 -> 563 ;
564 [label="gini = 0.0\nsamples = 2\nvalue = [0, 2]\nclass = 1"] ;
563 -> 564 ;
565 [label="gini = 0.0\nsamples = 2\nvalue = [2, 0]\nclass = 0"] ;
563 -> 565 ;
566 [label="day_time <= 82723.91\ngini = 0.484\nsamples = 85\nvalue = [35, 50]\nclass = 1"] ;
484 -> 566 ;
567 [label="day_time <= 81913.941\ngini = 0.219\nsamples = 8\nvalue = [1, 7]\nclass = 1"] ;
566 -> 567 ;
568 [label="day_time <= 81797.637\ngini = 0.375\nsamples = 4\nvalue = [1, 3]\nclass = 1"] ;
567 -> 568 ;
569 [label="gini = 0.0\nsamples = 3\nvalue = [0, 3]\nclass = 1"] ;
568 -> 569 ;
570 [label="gini = 0.0\nsamples = 1\nvalue = [1, 0]\nclass = 0"] ;
568 -> 570 ;
571 [label="gini = 0.0\nsamples = 4\nvalue = [0, 4]\nclass = 1"] ;
567 -> 571 ;
572 [label="day_time <= 83243.82\ngini = 0.493\nsamples = 77\nvalue = [34, 43]\nclass = 1"] ;
566 -> 572 ;
573 [label="gini = 0.0\nsamples = 2\nvalue = [2, 0]\nclass = 0"] ;
572 -> 573 ;
574 [label="day_time <= 84000.035\ngini = 0.489\nsamples = 75\nvalue = [32, 43]\nclass = 1"] ;
572 -> 574 ;
575 [label="gini = 0.0\nsamples = 4\nvalue = [0, 4]\nclass = 1"] ;
574 -> 575 ;
576 [label="day_time <= 84025.074\ngini = 0.495\nsamples = 71\nvalue = [32, 39]\nclass = 1"] ;
574 -> 576 ;
577 [label="gini = 0.0\nsamples = 2\nvalue = [2, 0]\nclass = 0"] ;
576 -> 577 ;
578 [label="day_time <= 86516.645\ngini = 0.491\nsamples = 69\nvalue = [30, 39]\nclass = 1"] ;
576 -> 578 ;
579 [label="day_time <= 85720.777\ngini = 0.375\nsamples = 12\nvalue = [3, 9]\nclass = 1"] ;
578 -> 579 ;
580 [label="day_time <= 85532.77\ngini = 0.469\nsamples = 8\nvalue = [3, 5]\nclass = 1"] ;
579 -> 580 ;
581 [label="clouds <= 4.5\ngini = 0.408\nsamples = 7\nvalue = [2, 5]\nclass = 1"] ;
580 -> 581 ;
582 [label="gini = 0.0\nsamples = 2\nvalue = [0, 2]\nclass = 1"] ;
581 -> 582 ;
583 [label="day_time <= 85300.473\ngini = 0.48\nsamples = 5\nvalue = [2, 3]\nclass = 1"] ;
581 -> 583 ;
584 [label="day_time <= 84733.285\ngini = 0.444\nsamples = 3\nvalue = [2, 1]\nclass = 0"] ;
583 -> 584 ;
585 [label="gini = 0.0\nsamples = 1\nvalue = [1, 0]\nclass = 0"] ;
584 -> 585 ;
586 [label="day_time <= 85072.582\ngini = 0.5\nsamples = 2\nvalue = [1, 1]\nclass = 0"] ;
584 -> 586 ;
587 [label="gini = 0.0\nsamples = 1\nvalue = [0, 1]\nclass = 1"] ;
586 -> 587 ;
588 [label="gini = 0.0\nsamples = 1\nvalue = [1, 0]\nclass = 0"] ;
586 -> 588 ;
589 [label="gini = 0.0\nsamples = 2\nvalue = [0, 2]\nclass = 1"] ;
583 -> 589 ;
590 [label="gini = 0.0\nsamples = 1\nvalue = [1, 0]\nclass = 0"] ;
580 -> 590 ;
591 [label="gini = 0.0\nsamples = 4\nvalue = [0, 4]\nclass = 1"] ;
579 -> 591 ;
592 [label="day_time <= 93564.414\ngini = 0.499\nsamples = 57\nvalue = [27, 30]\nclass = 1"] ;
578 -> 592 ;
593 [label="day_time <= 93334.516\ngini = 0.498\nsamples = 45\nvalue = [24, 21]\nclass = 0"] ;
592 -> 593 ;
594 [label="day_time <= 93123.879\ngini = 0.5\nsamples = 43\nvalue = [22, 21]\nclass = 0"] ;
593 -> 594 ;
595 [label="day_time <= 86569.141\ngini = 0.497\nsamples = 41\nvalue = [22, 19]\nclass = 0"] ;
594 -> 595 ;
596 [label="gini = 0.0\nsamples = 1\nvalue = [1, 0]\nclass = 0"] ;
595 -> 596 ;
597 [label="day_time <= 86691.926\ngini = 0.499\nsamples = 40\nvalue = [21, 19]\nclass = 0"] ;
595 -> 597 ;
598 [label="gini = 0.0\nsamples = 1\nvalue = [0, 1]\nclass = 1"] ;
597 -> 598 ;
599 [label="day_time <= 86909.086\ngini = 0.497\nsamples = 39\nvalue = [21, 18]\nclass = 0"] ;
597 -> 599 ;
600 [label="gini = 0.0\nsamples = 2\nvalue = [2, 0]\nclass = 0"] ;
599 -> 600 ;
601 [label="day_time <= 87686.832\ngini = 0.5\nsamples = 37\nvalue = [19, 18]\nclass = 0"] ;
599 -> 601 ;
602 [label="day_time <= 87126.414\ngini = 0.32\nsamples = 5\nvalue = [1, 4]\nclass = 1"] ;
601 -> 602 ;
603 [label="day_time <= 87014.867\ngini = 0.5\nsamples = 2\nvalue = [1, 1]\nclass = 0"] ;
602 -> 603 ;
604 [label="gini = 0.0\nsamples = 1\nvalue = [0, 1]\nclass = 1"] ;
603 -> 604 ;
605 [label="gini = 0.0\nsamples = 1\nvalue = [1, 0]\nclass = 0"] ;
603 -> 605 ;
606 [label="gini = 0.0\nsamples = 3\nvalue = [0, 3]\nclass = 1"] ;
602 -> 606 ;
607 [label="day_time <= 88119.047\ngini = 0.492\nsamples = 32\nvalue = [18, 14]\nclass = 0"] ;
601 -> 607 ;
608 [label="gini = 0.0\nsamples = 3\nvalue = [3, 0]\nclass = 0"] ;
607 -> 608 ;
609 [label="day_time <= 88529.684\ngini = 0.499\nsamples = 29\nvalue = [15, 14]\nclass = 0"] ;
607 -> 609 ;
610 [label="gini = 0.0\nsamples = 1\nvalue = [0, 1]\nclass = 1"] ;
609 -> 610 ;
611 [label="day_time <= 88915.832\ngini = 0.497\nsamples = 28\nvalue = [15, 13]\nclass = 0"] ;
609 -> 611 ;
612 [label="gini = 0.0\nsamples = 2\nvalue = [2, 0]\nclass = 0"] ;
611 -> 612 ;
613 [label="day_time <= 89756.324\ngini = 0.5\nsamples = 26\nvalue = [13, 13]\nclass = 0"] ;
611 -> 613 ;
614 [label="day_time <= 89243.734\ngini = 0.32\nsamples = 5\nvalue = [1, 4]\nclass = 1"] ;
613 -> 614 ;
615 [label="day_time <= 89058.73\ngini = 0.5\nsamples = 2\nvalue = [1, 1]\nclass = 0"] ;
614 -> 615 ;
616 [label="gini = 0.0\nsamples = 1\nvalue = [0, 1]\nclass = 1"] ;
615 -> 616 ;
617 [label="gini = 0.0\nsamples = 1\nvalue = [1, 0]\nclass = 0"] ;
615 -> 617 ;
618 [label="gini = 0.0\nsamples = 3\nvalue = [0, 3]\nclass = 1"] ;
614 -> 618 ;
619 [label="clouds <= 4.5\ngini = 0.49\nsamples = 21\nvalue = [12, 9]\nclass = 0"] ;
613 -> 619 ;
620 [label="day_time <= 90623.09\ngini = 0.278\nsamples = 6\nvalue = [5, 1]\nclass = 0"] ;
619 -> 620 ;
621 [label="day_time <= 90345.082\ngini = 0.5\nsamples = 2\nvalue = [1, 1]\nclass = 0"] ;
620 -> 621 ;
622 [label="gini = 0.0\nsamples = 1\nvalue = [1, 0]\nclass = 0"] ;
621 -> 622 ;
623 [label="gini = 0.0\nsamples = 1\nvalue = [0, 1]\nclass = 1"] ;
621 -> 623 ;
624 [label="gini = 0.0\nsamples = 4\nvalue = [4, 0]\nclass = 0"] ;
620 -> 624 ;
625 [label="day_time <= 91586.133\ngini = 0.498\nsamples = 15\nvalue = [7, 8]\nclass = 1"] ;
619 -> 625 ;
626 [label="day_time <= 89884.91\ngini = 0.48\nsamples = 10\nvalue = [6, 4]\nclass = 0"] ;
625 -> 626 ;
627 [label="gini = 0.0\nsamples = 1\nvalue = [1, 0]\nclass = 0"] ;
626 -> 627 ;
628 [label="day_time <= 89943.309\ngini = 0.494\nsamples = 9\nvalue = [5, 4]\nclass = 0"] ;
626 -> 628 ;
629 [label="gini = 0.0\nsamples = 1\nvalue = [0, 1]\nclass = 1"] ;
628 -> 629 ;
630 [label="day_time <= 90232.312\ngini = 0.469\nsamples = 8\nvalue = [5, 3]\nclass = 0"] ;
628 -> 630 ;
631 [label="gini = 0.0\nsamples = 2\nvalue = [2, 0]\nclass = 0"] ;
630 -> 631 ;
632 [label="day_time <= 90772.992\ngini = 0.5\nsamples = 6\nvalue = [3, 3]\nclass = 0"] ;
630 -> 632 ;
633 [label="gini = 0.0\nsamples = 2\nvalue = [0, 2]\nclass = 1"] ;
632 -> 633 ;
634 [label="day_time <= 91261.453\ngini = 0.375\nsamples = 4\nvalue = [3, 1]\nclass = 0"] ;
632 -> 634 ;
635 [label="gini = 0.0\nsamples = 2\nvalue = [2, 0]\nclass = 0"] ;
634 -> 635 ;
636 [label="day_time <= 91385.801\ngini = 0.5\nsamples = 2\nvalue = [1, 1]\nclass = 0"] ;
634 -> 636 ;
637 [label="gini = 0.0\nsamples = 1\nvalue = [0, 1]\nclass = 1"] ;
636 -> 637 ;
638 [label="gini = 0.0\nsamples = 1\nvalue = [1, 0]\nclass = 0"] ;
636 -> 638 ;
639 [label="day_time <= 92936.184\ngini = 0.32\nsamples = 5\nvalue = [1, 4]\nclass = 1"] ;
625 -> 639 ;
640 [label="gini = 0.0\nsamples = 4\nvalue = [0, 4]\nclass = 1"] ;
639 -> 640 ;
641 [label="gini = 0.0\nsamples = 1\nvalue = [1, 0]\nclass = 0"] ;
639 -> 641 ;
642 [label="gini = 0.0\nsamples = 2\nvalue = [0, 2]\nclass = 1"] ;
594 -> 642 ;
643 [label="gini = 0.0\nsamples = 2\nvalue = [2, 0]\nclass = 0"] ;
593 -> 643 ;
644 [label="day_time <= 94657.969\ngini = 0.375\nsamples = 12\nvalue = [3, 9]\nclass = 1"] ;
592 -> 644 ;
645 [label="day_time <= 94015.961\ngini = 0.298\nsamples = 11\nvalue = [2, 9]\nclass = 1"] ;
644 -> 645 ;
646 [label="day_time <= 93920.113\ngini = 0.408\nsamples = 7\nvalue = [2, 5]\nclass = 1"] ;
645 -> 646 ;
647 [label="day_time <= 93849.441\ngini = 0.278\nsamples = 6\nvalue = [1, 5]\nclass = 1"] ;
646 -> 647 ;
648 [label="day_time <= 93778.109\ngini = 0.444\nsamples = 3\nvalue = [1, 2]\nclass = 1"] ;
647 -> 648 ;
649 [label="gini = 0.0\nsamples = 2\nvalue = [0, 2]\nclass = 1"] ;
648 -> 649 ;
650 [label="gini = 0.0\nsamples = 1\nvalue = [1, 0]\nclass = 0"] ;
648 -> 650 ;
651 [label="gini = 0.0\nsamples = 3\nvalue = [0, 3]\nclass = 1"] ;
647 -> 651 ;
652 [label="gini = 0.0\nsamples = 1\nvalue = [1, 0]\nclass = 0"] ;
646 -> 652 ;
653 [label="gini = 0.0\nsamples = 4\nvalue = [0, 4]\nclass = 1"] ;
645 -> 653 ;
654 [label="gini = 0.0\nsamples = 1\nvalue = [1, 0]\nclass = 0"] ;
644 -> 654 ;
}
